{"learner":{"attributes":{"best_iteration":"5","best_score":"0.6919716507236578"},"feature_names":[],"feature_types":[],"gradient_booster":{"model":{"cats":{"enc":[],"feature_segments":[],"sorted_idx":[]},"gbtree_model_param":{"num_parallel_tree":"1","num_trees":"26"},"iteration_indptr":[0,1,2,3,4,5,6,7,8,9,10,11,12,13,14,15,16,17,18,19,20,21,22,23,24,25,26],"tree_info":[0,0,0,0,0,0,0,0,0,0,0,0,0,0,0,0,0,0,0,0,0,0,0,0,0,0],"trees":[{"base_weights":[-4.9612024E-3,-1.3327342E-1,1.0864773E-1,-1.8283823E-1,7.9992436E-2,7.840067E-2,4.1921517E-1,-1.6992559E-1,-8.1162316E-1,8.041249E-3,3.3630973E-1,9.628451E-2,-3.3190393E-1,4.4705054E-1,-3.3201832E-1,-2.3838654E-1,-1.1113178E-1,-1.0132521E0,-3.4486794E-1,-5.1163636E-2,2.814776E-1,3.5904875E-1,-1.1158389E-1,1.5338056E-1,-2.5835086E-2,-4.5664877E-1,1.11414805E-1,3.9884895E-1,8.671982E-1,-7.761405E-1,4.2059204E-1,-2.2158436E-1,-5.2351743E-1,-1.1657674E-1,8.0267364E-1,-1.0965642E0,-1.513637E-3,8.1050456E-2,-5.341704E-1,3.3357862E-2,-2.5468776E-1,-5.9038234E-1,3.49771E-1,2.7229524E-1,7.0440876E-1,4.0199194E-2,2.2189675E-1,-8.706463E-2,1.1717302E-1,-3.7809843E-1,-1.0903713E0,3.7338436E-1,-4.1906795E-1,-5.1145375E-2,4.4117254E-1,9.214291E-1,-1.2039047E-2,-1.4834571E-1,-1.2547845E-1,9.9541634E-2,-4.4901945E-2,-2.1143137E-2,-7.5146735E-2,-2.3858571E-2,-8.513504E-2,-9.959642E-3,-4.0489648E-2,1.197838E-1,1.507911E-2,-7.70468E-2,-1.3269207E-1,4.172167E-2,-7.618904E-2,1.2012264E-2,-2.094033E-2,-2.041003E-2,-1.0427246E-1,-1.097758E-1,6.1789162E-2,2.1010188E-2,7.19982E-2,2.1541988E-2,8.268643E-2,8.160989E-2,-4.8504245E-2,6.077748E-3,-3.1121705E-2,2.06961E-2,7.211851E-2,-3.503371E-3,-3.2936372E-2,7.4902005E-3,3.9873835E-2,-4.2061742E-2,7.076512E-2,-1.4328653E-1,-1.513637E-3,-8.845065E-3,6.1876226E-2,-6.933936E-2,4.99312E-2,4.9413692E-2,-3.8147386E-2,3.8759496E-2,8.0938496E-2,9.993183E-2,3.5178803E-3,-8.076473E-2,4.99312E-2],"categories":[],"categories_nodes":[],"categories_segments":[],"categories_sizes":[],"default_left":[0,0,0,0,0,0,0,0,0,0,0,0,0,0,0,0,0,0,0,0,0,0,0,0,0,0,0,0,0,0,0,0,0,0,0,0,0,0,0,0,0,0,0,0,0,0,0,0,0,0,0,0,0,0,0,0,0,0,0,0,0,0,0,0,0,0,0,0,0,0,0,0,0,0,0,0,0,0,0,0,0,0,0,0,0,0,0,0,0,0,0,0,0,0,0,0,0,0,0,0,0,0,0,0,0,0,0,0,0],"id":0,"left_children":[1,3,5,7,9,11,13,15,17,19,21,23,25,27,29,31,33,35,37,39,41,43,-1,45,47,49,51,53,55,57,59,61,63,65,67,69,-1,-1,71,73,75,77,79,81,83,85,87,89,91,93,95,97,99,101,103,105,-1,-1,107,-1,-1,-1,-1,-1,-1,-1,-1,-1,-1,-1,-1,-1,-1,-1,-1,-1,-1,-1,-1,-1,-1,-1,-1,-1,-1,-1,-1,-1,-1,-1,-1,-1,-1,-1,-1,-1,-1,-1,-1,-1,-1,-1,-1,-1,-1,-1,-1,-1,-1],"loss_changes":[2.1077707E2,7.1803764E1,7.195326E1,4.4506256E1,2.3585144E1,5.1295666E1,1.4380363E1,2.1678665E1,9.911026E0,1.624976E1,9.584482E0,4.6722504E1,1.622876E1,1.2818909E1,8.632367E0,1.1756668E1,1.4496075E1,6.2317505E0,8.058144E0,1.4201042E1,1.08225E1,8.007336E0,0E0,3.536653E1,1.8696436E1,1.0799641E1,9.147626E0,1.1314056E1,3.7515984E0,7.014517E0,5.3740835E0,1.2425568E1,1.2551357E1,1.4068493E1,4.126894E0,4.0622177E0,0E0,0E0,7.0124254E0,1.2287147E1,9.3169155E0,8.846967E0,8.362425E0,6.757183E0,7.7003784E0,1.2455572E1,2.0958237E1,1.8806606E1,7.537842E0,9.718449E0,8.853365E0,5.092586E0,5.843677E0,9.450852E0,1.0226402E1,4.2262344E0,0E0,0E0,4.4820538E0,0E0,0E0,0E0,0E0,0E0,0E0,0E0,0E0,0E0,0E0,0E0,0E0,0E0,0E0,0E0,0E0,0E0,0E0,0E0,0E0,0E0,0E0,0E0,0E0,0E0,0E0,0E0,0E0,0E0,0E0,0E0,0E0,0E0,0E0,0E0,0E0,0E0,0E0,0E0,0E0,0E0,0E0,0E0,0E0,0E0,0E0,0E0,0E0,0E0,0E0],"parents":[2147483647,0,0,1,1,2,2,3,3,4,4,5,5,6,6,7,7,8,8,9,9,10,10,11,11,12,12,13,13,14,14,15,15,16,16,17,17,18,18,19,19,20,20,21,21,23,23,24,24,25,25,26,26,27,27,28,28,29,29,30,30,31,31,32,32,33,33,34,34,35,35,38,38,39,39,40,40,41,41,42,42,43,43,44,44,45,45,46,46,47,47,48,48,49,49,50,50,51,51,52,52,53,53,54,54,55,55,58,58],"right_children":[2,4,6,8,10,12,14,16,18,20,22,24,26,28,30,32,34,36,38,40,42,44,-1,46,48,50,52,54,56,58,60,62,64,66,68,70,-1,-1,72,74,76,78,80,82,84,86,88,90,92,94,96,98,100,102,104,106,-1,-1,108,-1,-1,-1,-1,-1,-1,-1,-1,-1,-1,-1,-1,-1,-1,-1,-1,-1,-1,-1,-1,-1,-1,-1,-1,-1,-1,-1,-1,-1,-1,-1,-1,-1,-1,-1,-1,-1,-1,-1,-1,-1,-1,-1,-1,-1,-1,-1,-1,-1,-1],"split_conditions":[2.6709858E-1,2.079974E-1,3.2976368E-1,5.396809E-1,1.5774451E-1,3.1727862E-1,9.8977275E-3,9.672368E-2,2.5346243E-1,5.156003E-1,3.043077E-1,1.2679176E-1,4.5410118E-1,2.5901762E-1,3.109281E-1,9.361147E-2,6.099382E-1,8.64936E-2,6.151282E-2,1.14223436E-1,9.896883E-2,3.000512E-1,-1.1158389E-1,1.5050699E-1,5.530273E-1,3.6118258E-2,3.612453E-1,1.4281026E-1,6.592345E-1,3.4073627E-1,8.1810206E-2,1.5793462E-1,2.8932866E-2,1.9592685E-1,1.6718656E-1,7.337112E-2,-1.513637E-3,8.1050456E-2,2.279469E-2,1.591421E-1,1.5987176E-1,6.966358E-2,2.625483E-1,2.3837957E-1,1.6155633E-1,1.5606418E-1,2.4249102E-1,3.9759657E-1,4.0868558E-2,2.324029E-1,5.1271284E-1,1.080767E-1,3.9834857E-1,6.3161975E-1,7.3803955E-1,3.193354E-2,-1.2039047E-2,-1.4834571E-1,1.8909867E-1,9.9541634E-2,-4.4901945E-2,-2.1143137E-2,-7.5146735E-2,-2.3858571E-2,-8.513504E-2,-9.959642E-3,-4.0489648E-2,1.197838E-1,1.507911E-2,-7.70468E-2,-1.3269207E-1,4.172167E-2,-7.618904E-2,1.2012264E-2,-2.094033E-2,-2.041003E-2,-1.0427246E-1,-1.097758E-1,6.1789162E-2,2.1010188E-2,7.19982E-2,2.1541988E-2,8.268643E-2,8.160989E-2,-4.8504245E-2,6.077748E-3,-3.1121705E-2,2.06961E-2,7.211851E-2,-3.503371E-3,-3.2936372E-2,7.4902005E-3,3.9873835E-2,-4.2061742E-2,7.076512E-2,-1.4328653E-1,-1.513637E-3,-8.845065E-3,6.1876226E-2,-6.933936E-2,4.99312E-2,4.9413692E-2,-3.8147386E-2,3.8759496E-2,8.0938496E-2,9.993183E-2,3.5178803E-3,-8.076473E-2,4.99312E-2],"split_indices":[14,23,12,25,26,20,11,14,7,23,12,25,30,4,5,1,30,1,6,20,9,26,0,30,30,22,9,9,4,4,11,11,20,19,9,14,0,0,14,19,7,26,19,9,5,26,26,25,23,25,19,9,5,30,5,8,0,0,19,0,0,0,0,0,0,0,0,0,0,0,0,0,0,0,0,0,0,0,0,0,0,0,0,0,0,0,0,0,0,0,0,0,0,0,0,0,0,0,0,0,0,0,0,0,0,0,0,0,0],"split_type":[0,0,0,0,0,0,0,0,0,0,0,0,0,0,0,0,0,0,0,0,0,0,0,0,0,0,0,0,0,0,0,0,0,0,0,0,0,0,0,0,0,0,0,0,0,0,0,0,0,0,0,0,0,0,0,0,0,0,0,0,0,0,0,0,0,0,0,0,0,0,0,0,0,0,0,0,0,0,0,0,0,0,0,0,0,0,0,0,0,0,0,0,0,0,0,0,0,0,0,0,0,0,0,0,0,0,0,0,0],"sum_hessian":[1.4456991E4,6.7895E3,7.667491E3,5.509627E3,1.2798729E3,6.9884414E3,6.790499E2,5.400159E3,1.0946775E2,1.00045526E3,2.794177E2,6.697527E3,2.909143E2,6.5530695E2,2.3743006E1,2.4927656E3,2.9073936E3,7.547777E1,3.3989986E1,8.227576E2,1.7769765E2,2.759187E2,3.4989693E0,4.5641553E3,2.1333716E3,2.2718307E2,6.3731224E1,5.8982623E2,6.548071E1,1.4995583E1,8.747423E0,2.356056E3,1.3670973E2,2.8911482E3,1.6245214E1,6.947953E1,5.998233E0,4.2487483E0,2.9741238E1,5.815787E2,2.4117896E2,1.2246392E1,1.6545126E2,2.2218454E2,5.373417E1,1.7222427E3,2.8419128E3,1.4945597E3,6.388118E2,2.0368999E2,2.3493078E1,4.2987335E1,2.0743889E1,5.0485126E1,5.393411E2,6.2231667E1,3.2490427E0,6.4980855E0,8.497497E0,5.2484536E0,3.4989693E0,2.3133186E3,4.273741E1,7.4228134E1,6.2481594E1,2.731945E3,1.592031E2,9.497202E0,6.748012E0,3.0740944E1,3.8738586E1,5.49838E0,2.4242859E1,4.291236E2,1.524551E2,2.2793285E2,1.3246098E1,8.747423E0,3.4989693E0,1.2146422E2,4.398704E1,2.0294022E2,1.9244331E1,4.948542E1,4.2487483E0,1.6280204E3,9.4222244E1,2.7609368E3,8.097614E1,1.2316372E3,2.6292255E2,5.5683594E2,8.197585E1,1.9669206E2,6.9979386E0,1.7494846E1,5.998233E0,1.4995583E1,2.7991755E1,1.6245214E1,4.498675E0,1.8744478E1,3.174065E1,4.728607E2,6.6480415E1,5.698321E1,5.2484536E0,3.998822E0,4.498675E0],"tree_param":{"num_deleted":"0","num_feature":"32","num_nodes":"109","size_leaf_vector":"1"}},{"base_weights":[-4.774069E-3,-1.1931334E-1,9.894638E-2,-1.6498898E-1,9.523014E-2,7.23758E-2,3.946874E-1,-2.5313583E-1,-1.115764E-1,-7.818805E-2,2.2891878E-1,5.0767485E-2,3.2770306E-1,4.1848445E-1,-4.5375663E-1,-2.3814805E-1,-7.9570115E-1,-9.487161E-2,-3.1610107E-1,-2.933429E-2,-5.268755E-1,-7.026237E-2,2.9613897E-1,-6.922995E-3,1.2549996E-1,2.7535087E-1,8.1391513E-1,7.2058725E-1,3.4608778E-1,-9.9748963E-1,1.8380623E-2,-2.1591298E-1,-4.6073416E-1,-9.9805385E-1,4.6504688E-1,-1.743368E-1,-4.557265E-2,-2.5713518E-1,-9.714781E-1,-6.4604E-2,7.8535044E-1,-1.3061042E-1,-1.1270444E0,-2.2776902E-1,3.7294474E-1,2.7835685E-1,1.0587846E0,-6.2187906E-2,1.5082552E-1,1.7151521E-1,-6.168512E-2,2.0750752E-1,6.315394E-1,1.254677E0,4.418209E-1,1.0398481E0,4.4303122E-1,7.790989E-2,4.550217E-1,-1.359726E-1,-3.7029896E-2,5.2124944E-2,-7.911261E-2,-2.374276E-2,5.2860663E-3,-8.423842E-3,-5.447809E-2,-3.7059668E-4,-1.132846E-1,8.2943246E-2,-7.131593E-3,-1.9904977E-2,2.5604764E-2,1.4712282E-3,-1.37960315E-2,-1.999854E-2,-1.0337527E-1,-5.1455405E-2,-1.3517207E-1,-4.0661427E-3,-9.428363E-2,1.2181337E-1,2.2818735E-3,8.0714904E-2,-4.1442886E-2,-4.2975098E-2,-1.4752083E-1,-3.870312E-2,2.6057143E-2,2.3305064E-2,1.24898545E-1,9.904791E-3,3.410523E-2,1.5480742E-2,1.4662288E-1,-2.7065205E-3,-2.7587578E-2,-1.5549505E-3,2.4600782E-2,2.0371456E-2,-5.5831484E-3,1.1032839E-1,-7.1807774E-3,2.8677989E-2,-9.027417E-3,9.386473E-2,2.4231981E-2,7.262001E-2,1.4424485E-1,-4.642978E-2,6.918653E-2,7.8131475E-2,1.2278016E-1,-2.8949052E-2,5.5359542E-2,1.6419046E-2,-5.1275767E-2,7.700663E-2,3.7114795E-2],"categories":[],"categories_nodes":[],"categories_segments":[],"categories_sizes":[],"default_left":[0,0,0,0,0,0,0,0,0,0,0,0,0,0,0,0,0,0,0,0,0,0,0,0,0,0,0,0,0,0,0,0,0,0,0,0,0,0,0,0,0,0,0,0,0,0,0,0,0,0,0,0,0,0,0,0,0,0,0,0,0,0,0,0,0,0,0,0,0,0,0,0,0,0,0,0,0,0,0,0,0,0,0,0,0,0,0,0,0,0,0,0,0,0,0,0,0,0,0,0,0,0,0,0,0,0,0,0,0,0,0,0,0,0,0,0,0,0,0],"id":1,"left_children":[1,3,5,7,9,11,13,15,17,19,21,23,25,27,29,31,33,35,37,39,41,43,45,47,49,51,53,55,57,59,61,63,65,67,69,71,73,75,77,79,81,83,85,87,89,91,93,95,97,99,101,103,105,107,109,111,113,115,117,-1,-1,-1,-1,-1,-1,-1,-1,-1,-1,-1,-1,-1,-1,-1,-1,-1,-1,-1,-1,-1,-1,-1,-1,-1,-1,-1,-1,-1,-1,-1,-1,-1,-1,-1,-1,-1,-1,-1,-1,-1,-1,-1,-1,-1,-1,-1,-1,-1,-1,-1,-1,-1,-1,-1,-1,-1,-1,-1,-1],"loss_changes":[1.722371E2,6.754095E1,5.9706856E1,2.6684158E1,2.807734E1,3.846745E1,1.2838379E1,1.712703E1,1.2024178E1,1.1480719E1,1.3792179E1,2.7773155E1,1.3520428E1,1.2989159E1,4.5988626E0,1.0157928E1,1.5053497E1,1.2799152E1,9.923737E0,1.3670562E1,1.1971743E1,8.86325E0,7.148182E0,3.1681347E1,2.4190163E1,1.1699406E1,7.83836E0,9.737873E0,1.4354698E1,1.1937056E0,4.549548E0,1.1012215E1,5.8459015E0,6.5145226E0,1.7950795E0,1.3368614E1,1.1282267E1,1.0585714E1,2.852108E0,9.489089E0,6.3597603E0,8.87664E0,4.0901413E0,7.4023805E0,3.6342E0,6.076481E0,4.1209717E0,2.0169056E1,1.4954367E1,1.6518784E1,6.508893E0,9.862793E0,8.997032E0,1.0410233E0,7.1355762E0,1.4342651E0,5.400198E0,7.4027066E0,8.878044E0,0E0,0E0,0E0,0E0,0E0,0E0,0E0,0E0,0E0,0E0,0E0,0E0,0E0,0E0,0E0,0E0,0E0,0E0,0E0,0E0,0E0,0E0,0E0,0E0,0E0,0E0,0E0,0E0,0E0,0E0,0E0,0E0,0E0,0E0,0E0,0E0,0E0,0E0,0E0,0E0,0E0,0E0,0E0,0E0,0E0,0E0,0E0,0E0,0E0,0E0,0E0,0E0,0E0,0E0,0E0,0E0,0E0,0E0,0E0,0E0],"parents":[2147483647,0,0,1,1,2,2,3,3,4,4,5,5,6,6,7,7,8,8,9,9,10,10,11,11,12,12,13,13,14,14,15,15,16,16,17,17,18,18,19,19,20,20,21,21,22,22,23,23,24,24,25,25,26,26,27,27,28,28,29,29,30,30,31,31,32,32,33,33,34,34,35,35,36,36,37,37,38,38,39,39,40,40,41,41,42,42,43,43,44,44,45,45,46,46,47,47,48,48,49,49,50,50,51,51,52,52,53,53,54,54,55,55,56,56,57,57,58,58],"right_children":[2,4,6,8,10,12,14,16,18,20,22,24,26,28,30,32,34,36,38,40,42,44,46,48,50,52,54,56,58,60,62,64,66,68,70,72,74,76,78,80,82,84,86,88,90,92,94,96,98,100,102,104,106,108,110,112,114,116,118,-1,-1,-1,-1,-1,-1,-1,-1,-1,-1,-1,-1,-1,-1,-1,-1,-1,-1,-1,-1,-1,-1,-1,-1,-1,-1,-1,-1,-1,-1,-1,-1,-1,-1,-1,-1,-1,-1,-1,-1,-1,-1,-1,-1,-1,-1,-1,-1,-1,-1,-1,-1,-1,-1,-1,-1,-1,-1,-1,-1],"split_conditions":[2.690863E-1,2.2437619E-1,3.4080616E-1,3.6106486E-2,2.2060339E-1,3.7366557E-1,2.7769051E-2,2.8209257E-1,8.590816E-2,2.945136E-1,4.7172066E-3,1.827972E-1,5.250148E-1,1.331985E-1,3.263416E-1,9.4554245E-2,9.4288655E-2,9.672368E-2,7.14128E-2,1.4131857E-1,2.2085467E-1,1.9639318E-1,2.5075716E-1,3.817882E-1,2.4951169E-1,6.4302653E-1,3.392146E-2,2.1432504E-2,7.171586E-2,6.6395886E-2,5.530273E-1,2.1854815E-1,1.0564562E-2,5.5445977E-2,3.1868485E-1,1.6430041E-1,1.2854597E-1,9.777386E-2,4.974797E-1,4.6446454E-2,1.3357888E-1,4.2924965E-3,3.1378087E-1,8.72749E-2,4.8535958E-2,3.071971E-1,3.4404997E-2,6.160504E-2,8.0539705E-4,1.3039756E-1,2.5099447E-1,3.612453E-1,6.0435787E-2,4.3052945E-1,1.6573969E-1,6.544874E-2,3.541673E-1,4.330475E-1,1.0767161E-1,-1.359726E-1,-3.7029896E-2,5.2124944E-2,-7.911261E-2,-2.374276E-2,5.2860663E-3,-8.423842E-3,-5.447809E-2,-3.7059668E-4,-1.132846E-1,8.2943246E-2,-7.131593E-3,-1.9904977E-2,2.5604764E-2,1.4712282E-3,-1.37960315E-2,-1.999854E-2,-1.0337527E-1,-5.1455405E-2,-1.3517207E-1,-4.0661427E-3,-9.428363E-2,1.2181337E-1,2.2818735E-3,8.0714904E-2,-4.1442886E-2,-4.2975098E-2,-1.4752083E-1,-3.870312E-2,2.6057143E-2,2.3305064E-2,1.24898545E-1,9.904791E-3,3.410523E-2,1.5480742E-2,1.4662288E-1,-2.7065205E-3,-2.7587578E-2,-1.5549505E-3,2.4600782E-2,2.0371456E-2,-5.5831484E-3,1.1032839E-1,-7.1807774E-3,2.8677989E-2,-9.027417E-3,9.386473E-2,2.4231981E-2,7.262001E-2,1.4424485E-1,-4.642978E-2,6.918653E-2,7.8131475E-2,1.2278016E-1,-2.8949052E-2,5.5359542E-2,1.6419046E-2,-5.1275767E-2,7.700663E-2,3.7114795E-2],"split_indices":[14,23,12,18,31,23,11,10,11,22,15,18,14,0,10,29,23,14,22,12,9,14,7,30,9,23,12,24,24,0,30,5,22,5,30,22,9,9,6,27,31,14,23,1,5,31,15,22,23,11,30,9,18,23,19,0,10,0,31,0,0,0,0,0,0,0,0,0,0,0,0,0,0,0,0,0,0,0,0,0,0,0,0,0,0,0,0,0,0,0,0,0,0,0,0,0,0,0,0,0,0,0,0,0,0,0,0,0,0,0,0,0,0,0,0,0,0,0,0],"split_type":[0,0,0,0,0,0,0,0,0,0,0,0,0,0,0,0,0,0,0,0,0,0,0,0,0,0,0,0,0,0,0,0,0,0,0,0,0,0,0,0,0,0,0,0,0,0,0,0,0,0,0,0,0,0,0,0,0,0,0,0,0,0,0,0,0,0,0,0,0,0,0,0,0,0,0,0,0,0,0,0,0,0,0,0,0,0,0,0,0,0,0,0,0,0,0,0,0,0,0,0,0,0,0,0,0,0,0,0,0,0,0,0,0,0,0,0,0,0,0],"sum_hessian":[1.449583E4,6.8890327E3,7.606797E3,5.680392E3,1.2086409E3,6.9811636E3,6.256333E2,2.1411833E3,3.5392085E3,5.259963E2,6.826446E2,6.4379146E3,5.4324927E2,6.0917194E2,1.6461342E1,2.085205E3,5.5978268E1,3.2737722E3,2.654363E2,4.7551028E2,5.048602E1,1.2495712E2,5.576875E2,3.6329736E3,2.804941E3,4.920414E2,5.120787E1,1.1576473E2,4.9340723E2,7.2318883E0,9.229454E0,1.898023E3,1.8718216E2,4.8484142E1,7.4941254E0,1.2516569E3,2.0221154E3,2.4494312E2,2.0493202E1,4.5677866E2,1.8731625E1,3.1242327E1,1.924369E1,9.2718575E1,3.223855E1,5.4644257E2,1.1244939E1,2.6913408E3,9.416327E2,2.251964E3,5.529768E2,4.1488202E2,7.71594E1,2.2232187E1,2.8975683E1,5.23928E1,6.3371933E1,1.432881E2,3.5011914E2,3.7428098E0,3.4890785E0,5.9888062E0,3.2406478E0,1.7578041E3,1.4021883E2,3.4742374E1,1.5243979E2,5.999063E0,4.248508E1,4.248135E0,3.2459903E0,1.1844167E3,6.724012E1,1.2235083E3,7.9860706E2,2.2944496E2,1.5498143E1,1.0496338E1,9.996864E0,4.457857E2,1.0992948E1,1.1484718E1,7.2469068E0,6.7485E0,2.4493828E1,7.248379E0,1.1995311E1,7.022754E1,2.2491035E1,2.8989431E1,3.249117E0,1.4264703E2,4.0379553E2,3.998666E0,7.2462726E0,2.3127942E3,3.7854666E2,3.42588E2,5.990447E2,1.9730613E3,2.7890277E2,3.7481606E0,5.4922864E2,3.2795105E2,8.6930984E1,4.219641E1,3.496299E1,7.244052E0,1.4988135E1,5.994789E0,2.2980894E1,2.4450169E1,2.7942629E1,7.9798975E0,5.5392033E1,1.25803E2,1.7485094E1,7.164277E1,2.7847635E2],"tree_param":{"num_deleted":"0","num_feature":"32","num_nodes":"119","size_leaf_vector":"1"}},{"base_weights":[-4.3029645E-3,-3.47334E-2,2.3176582E-1,3.5865214E-2,-1.15372196E-1,2.5384253E-1,-1.909336E-1,5.6974076E-2,-3.131759E-1,-9.2205994E-2,-3.7978345E-1,2.1741575E-1,4.621909E-1,-8.027611E-1,2.11195E-1,1.2089155E-2,1.5644282E-1,2.0109927E-2,-4.5368946E-1,-5.637436E-2,-2.4510297E-1,-3.0026707E-1,-8.096572E-1,2.0334764E-1,8.0732393E-1,-2.0714553E-1,5.316134E-1,-9.582435E-1,3.0243902E-2,4.2073992E-1,-3.05845E-1,-3.8236078E-2,1.1082237E-1,1.725856E-1,-4.6055084E-1,2.0349985E-1,-3.7305546E-1,-8.137629E-1,-3.525777E-1,-7.3506504E-2,3.4887478E-1,-2.341173E-1,-1.247662E0,-3.5490406E-1,2.0682855E-1,-9.176278E-1,1.0516939E-1,-1.01956636E-1,2.2640009E-1,1.2804079E0,1.2165803E-1,-9.861671E-1,4.03894E-1,7.094614E-1,2.8632677E-1,-1.1618531E0,-2.5946647E-1,-3.8705993E-1,6.4668953E-1,3.4598928E-2,-5.836365E-1,-1.7137775E-3,-3.5433367E-2,1.3610295E-2,-3.039567E-2,1.5394715E-2,6.492639E-2,1.4812817E-2,-9.087234E-2,3.0218223E-2,-1.1096412E-1,-7.859936E-2,-2.8811942E-3,-9.200852E-2,4.3658458E-2,3.7698746E-3,-5.273669E-2,-8.2383435E-3,3.6551025E-2,-3.8405824E-2,4.453216E-2,-2.0808985E-2,-5.4656703E-2,-1.670785E-1,-4.4683043E-2,-3.928806E-2,3.8142625E-2,-1.3662035E-2,5.025549E-2,-5.1272668E-2,-1.2682526E-1,-2.5219027E-2,3.9367948E-2,4.012633E-2,1.7325288E-2,4.936715E-2,1.4986241E-1,5.25392E-2,-4.3125432E-2,-4.4665188E-2,-1.2437852E-1,1.0081144E-1,-3.6404505E-2,8.599857E-2,2.8360346E-2,-1.6461605E-2,4.1915197E-2,-1.4611635E-1,-7.899802E-2,2.9377623E-2,-8.407625E-2,-8.821701E-2,2.9189551E-2,8.381858E-2,-3.614789E-2,8.761792E-3,-1.2894027E-1],"categories":[],"categories_nodes":[],"categories_segments":[],"categories_sizes":[],"default_left":[0,0,0,0,0,0,0,0,0,0,0,0,0,0,0,0,0,0,0,0,0,0,0,0,0,0,0,0,0,0,0,0,0,0,0,0,0,0,0,0,0,0,0,0,0,0,0,0,0,0,0,0,0,0,0,0,0,0,0,0,0,0,0,0,0,0,0,0,0,0,0,0,0,0,0,0,0,0,0,0,0,0,0,0,0,0,0,0,0,0,0,0,0,0,0,0,0,0,0,0,0,0,0,0,0,0,0,0,0,0,0,0,0,0,0,0,0],"id":2,"left_children":[1,3,5,7,9,11,13,15,17,19,21,23,25,27,29,31,33,35,37,39,41,43,45,47,49,51,53,55,-1,57,59,61,63,65,67,69,71,73,75,77,79,81,83,85,87,89,-1,91,93,95,97,99,101,103,105,107,109,111,113,-1,115,-1,-1,-1,-1,-1,-1,-1,-1,-1,-1,-1,-1,-1,-1,-1,-1,-1,-1,-1,-1,-1,-1,-1,-1,-1,-1,-1,-1,-1,-1,-1,-1,-1,-1,-1,-1,-1,-1,-1,-1,-1,-1,-1,-1,-1,-1,-1,-1,-1,-1,-1,-1,-1,-1,-1,-1],"loss_changes":[1.040157E2,7.304621E1,1.5482925E1,5.0390797E1,3.660565E1,1.1761276E1,2.0503752E1,2.8784271E1,1.8315376E1,3.0135387E1,1.6115501E1,1.0857407E1,1.0952026E1,6.024246E0,5.602662E0,2.2108444E1,2.002237E1,8.451692E0,9.593018E0,3.099493E1,1.1069473E1,1.1403244E1,1.5909351E1,9.259125E0,9.667486E0,1.1140436E1,8.909813E0,3.7165947E0,0E0,6.9267325E0,2.938541E0,1.9602564E1,1.5778347E1,1.7188564E1,1.4188595E1,1.0646685E1,5.184446E0,8.322342E0,1.482782E1,1.669934E1,1.2973688E1,8.227959E0,2.768116E0,1.0475536E1,4.1858306E0,9.241623E0,0E0,6.9647574E0,1.1203159E1,2.1484184E0,3.3012884E0,6.9708157E-1,6.5636597E0,7.4305687E0,5.5255704E0,1.0964737E0,2.8731523E0,3.1714728E0,5.9385233E0,0E0,5.437185E0,0E0,0E0,0E0,0E0,0E0,0E0,0E0,0E0,0E0,0E0,0E0,0E0,0E0,0E0,0E0,0E0,0E0,0E0,0E0,0E0,0E0,0E0,0E0,0E0,0E0,0E0,0E0,0E0,0E0,0E0,0E0,0E0,0E0,0E0,0E0,0E0,0E0,0E0,0E0,0E0,0E0,0E0,0E0,0E0,0E0,0E0,0E0,0E0,0E0,0E0,0E0,0E0,0E0,0E0,0E0,0E0],"parents":[2147483647,0,0,1,1,2,2,3,3,4,4,5,5,6,6,7,7,8,8,9,9,10,10,11,11,12,12,13,13,14,14,15,15,16,16,17,17,18,18,19,19,20,20,21,21,22,22,23,23,24,24,25,25,26,26,27,27,29,29,30,30,31,31,32,32,33,33,34,34,35,35,36,36,37,37,38,38,39,39,40,40,41,41,42,42,43,43,44,44,45,45,47,47,48,48,49,49,50,50,51,51,52,52,53,53,54,54,55,55,56,56,57,57,58,58,60,60],"right_children":[2,4,6,8,10,12,14,16,18,20,22,24,26,28,30,32,34,36,38,40,42,44,46,48,50,52,54,56,-1,58,60,62,64,66,68,70,72,74,76,78,80,82,84,86,88,90,-1,92,94,96,98,100,102,104,106,108,110,112,114,-1,116,-1,-1,-1,-1,-1,-1,-1,-1,-1,-1,-1,-1,-1,-1,-1,-1,-1,-1,-1,-1,-1,-1,-1,-1,-1,-1,-1,-1,-1,-1,-1,-1,-1,-1,-1,-1,-1,-1,-1,-1,-1,-1,-1,-1,-1,-1,-1,-1,-1,-1,-1,-1,-1,-1,-1,-1],"split_conditions":[2.0283712E-1,4.797943E-2,3.7998354E-1,3.1727862E-1,4.5973477E-1,1.3299486E-1,6.052754E-1,2.2954553E-1,1.0670279E-1,6.748872E-2,2.0877932E-1,1.2430377E-2,1.2002246E-1,4.2168642E-3,4.6676522E-1,2.3872025E-1,1.7522997E-1,4.5766822E-1,3.888927E-1,1.894839E-1,9.185159E-2,5.6976056E-1,1.35881E-1,1.1237887E-1,3.8152263E-3,1.5627731E-1,1.678559E-1,4.0910256E-1,3.0243902E-2,3.580308E-2,2.6551422E-1,6.997225E-2,2.945136E-1,7.4429864E-1,1.8479258E-1,7.052376E-2,2.0521021E-1,1.2760448E-1,3.383077E-1,6.735355E-1,7.0339635E-2,2.795796E-1,3.9143097E-1,2.9933256E-1,2.9678732E-1,1.0738726E-1,1.0516939E-1,1.7435995E-1,9.6507743E-4,4.211134E-1,6.989349E-1,1.5265657E-1,2.0833464E-1,3.612453E-1,2.6856127E-1,8.7885916E-2,4.734373E-1,1.4467779E-1,4.0738836E-1,3.4598928E-2,8.80094E-2,-1.7137775E-3,-3.5433367E-2,1.3610295E-2,-3.039567E-2,1.5394715E-2,6.492639E-2,1.4812817E-2,-9.087234E-2,3.0218223E-2,-1.1096412E-1,-7.859936E-2,-2.8811942E-3,-9.200852E-2,4.3658458E-2,3.7698746E-3,-5.273669E-2,-8.2383435E-3,3.6551025E-2,-3.8405824E-2,4.453216E-2,-2.0808985E-2,-5.4656703E-2,-1.670785E-1,-4.4683043E-2,-3.928806E-2,3.8142625E-2,-1.3662035E-2,5.025549E-2,-5.1272668E-2,-1.2682526E-1,-2.5219027E-2,3.9367948E-2,4.012633E-2,1.7325288E-2,4.936715E-2,1.4986241E-1,5.25392E-2,-4.3125432E-2,-4.4665188E-2,-1.2437852E-1,1.0081144E-1,-3.6404505E-2,8.599857E-2,2.8360346E-2,-1.6461605E-2,4.1915197E-2,-1.4611635E-1,-7.899802E-2,2.9377623E-2,-8.407625E-2,-8.821701E-2,2.9189551E-2,8.381858E-2,-3.614789E-2,8.761792E-3,-1.2894027E-1],"split_indices":[12,25,25,20,25,24,30,31,13,20,31,16,30,20,25,30,3,20,20,24,27,30,24,18,24,25,25,13,0,24,9,22,22,30,22,2,15,24,19,30,9,10,13,29,3,10,0,19,19,5,5,19,24,9,9,24,5,22,12,0,22,0,0,0,0,0,0,0,0,0,0,0,0,0,0,0,0,0,0,0,0,0,0,0,0,0,0,0,0,0,0,0,0,0,0,0,0,0,0,0,0,0,0,0,0,0,0,0,0,0,0,0,0,0,0,0,0],"split_type":[0,0,0,0,0,0,0,0,0,0,0,0,0,0,0,0,0,0,0,0,0,0,0,0,0,0,0,0,0,0,0,0,0,0,0,0,0,0,0,0,0,0,0,0,0,0,0,0,0,0,0,0,0,0,0,0,0,0,0,0,0,0,0,0,0,0,0,0,0,0,0,0,0,0,0,0,0,0,0,0,0,0,0,0,0,0,0,0,0,0,0,0,0,0,0,0,0,0,0,0,0,0,0,0,0,0,0,0,0,0,0,0,0,0,0,0,0],"sum_hessian":[1.4480075E4,1.2827787E4,1.6522887E3,6.8393267E3,5.98846E3,1.570881E3,8.140776E1,6.450354E3,3.88973E2,5.507639E3,4.8082095E2,1.3392546E3,2.316263E2,3.198931E1,4.941845E1,4.4461646E3,2.0041892E3,1.1539988E2,2.7357312E2,4.4636084E3,1.0440305E3,4.0739392E2,7.342703E1,1.3095391E3,2.9715637E1,2.1444561E1,2.1018173E2,2.8239899E1,3.7494123E0,3.5436485E1,1.3981964E1,2.944782E3,1.5013826E3,1.9539492E3,5.0240013E1,7.919605E1,3.620383E1,5.8216984E1,2.1535612E2,4.283583E3,1.8002559E2,1.0340332E3,9.997295E0,3.6821768E2,3.9176266E1,6.993129E1,3.4957404E0,9.139206E1,1.218147E3,1.6984043E1,1.2731595E1,9.2286215E0,1.22159395E1,1.205068E2,8.967494E1,2.1244015E1,6.9958825E0,7.492869E0,2.7943617E1,3.9971712E0,9.984794E0,2.761812E3,1.829698E2,1.4159916E3,8.5391E1,1.8818984E3,7.20508E1,2.1494257E1,2.8745758E1,7.444737E1,4.7486787E0,1.5744152E1,2.0459679E1,5.3971664E1,4.245322E0,6.668077E1,1.4867535E2,4.1997046E3,8.3878006E1,2.0467451E1,1.5955814E2,9.563538E2,7.76794E1,5.7487392E0,4.248556E0,3.5073083E2,1.7486841E1,1.8218102E1,2.0958164E1,3.3728817E1,3.6202477E1,7.066541E1,2.0726646E1,2.8197403E2,9.36173E2,4.495814E0,1.2488229E1,7.4917727E0,5.2398224E0,3.9914646E0,5.2371564E0,6.7345834E0,5.4813566E0,8.810932E1,3.2397472E1,2.017805E1,6.9496895E1,9.998438E0,1.1245578E1,3.7497163E0,3.2461662E0,4.245171E0,3.2476978E0,2.3708172E1,4.235445E0,5.493801E0,4.490992E0],"tree_param":{"num_deleted":"0","num_feature":"32","num_nodes":"117","size_leaf_vector":"1"}},{"base_weights":[-4.576211E-3,-5.447885E-2,1.2887491E-1,-9.475142E-2,9.699493E-2,7.622503E-2,2.2953278E-1,-5.8650285E-2,-2.4403593E-1,6.860175E-2,3.3038235E-1,5.1579047E-2,2.2574079E-1,2.4980637E-1,-5.5111337E-1,-8.388905E-2,2.1254086E-1,-1.9616735E-1,-4.0068355E-1,3.9125998E-2,2.835066E-1,2.2713281E-1,8.4422785E-1,1.5295827E-1,6.7511387E-3,1.17990635E-1,4.3081555E-1,2.3442617E-1,9.7144663E-1,-7.3923236E-1,9.40388E-2,-1.208227E-1,7.0099756E-2,7.869604E-2,4.2803693E-1,-2.9641566E-1,-1.1108599E-1,-4.4776684E-1,2.7119777E-1,4.8673462E-2,-5.5924374E-1,1.6197032E-1,9.1493887E-1,4.671209E-1,3.8462028E-2,9.6542925E-1,6.1180997E-3,1.9085051E-1,-4.571453E-1,-8.226305E-3,5.3595984E-1,-2.3688698E-1,2.5700772E-1,4.751309E-1,-7.7336885E-2,2.2417845E-1,1.2044821E0,2.0748334E-2,1.1294624E0,-9.758381E-1,2.5149757E-2,-1.6494727E-2,3.9591445E-3,1.3749475E-2,-1.4255217E-2,1.7615352E-2,-1.617012E-2,2.9712567E-2,7.825357E-2,-3.299806E-2,3.156394E-2,-5.96271E-3,-4.182979E-2,-4.840864E-2,1.9509021E-2,7.842544E-2,-3.7640627E-2,7.96031E-3,-9.914934E-3,-9.467844E-2,2.3780898E-3,4.383173E-3,1.0616068E-1,1.1843828E-1,3.417298E-2,6.0374122E-2,-1.24546485E-2,-1.6447183E-3,8.959429E-2,4.781547E-2,1.2739158E-1,2.2379238E-2,-3.1893168E-2,-9.24573E-2,1.6217675E-3,-1.4796621E-3,9.68847E-2,9.034365E-2,2.4792086E-2,6.2463194E-4,-6.511626E-2,3.8594607E-2,-1.3959738E-2,4.2433158E-2,1.3703907E-1,2.9993204E-2,1.1332967E-2,4.9364652E-2,1.3761044E-1,1.2434316E-1,5.0166506E-2,-2.9007554E-2,-1.2667687E-1],"categories":[],"categories_nodes":[],"categories_segments":[],"categories_sizes":[],"default_left":[0,0,0,0,0,0,0,0,0,0,0,0,0,0,0,0,0,0,0,0,0,0,0,0,0,0,0,0,0,0,0,0,0,0,0,0,0,0,0,0,0,0,0,0,0,0,0,0,0,0,0,0,0,0,0,0,0,0,0,0,0,0,0,0,0,0,0,0,0,0,0,0,0,0,0,0,0,0,0,0,0,0,0,0,0,0,0,0,0,0,0,0,0,0,0,0,0,0,0,0,0,0,0,0,0,0,0,0,0,0,0,0,0],"id":3,"left_children":[1,3,5,7,9,11,13,15,17,19,21,23,25,27,29,31,33,35,37,39,41,43,45,47,49,51,53,55,57,59,-1,61,63,65,67,69,71,73,75,77,79,81,83,85,87,89,-1,91,93,95,97,99,101,103,-1,105,107,-1,109,111,-1,-1,-1,-1,-1,-1,-1,-1,-1,-1,-1,-1,-1,-1,-1,-1,-1,-1,-1,-1,-1,-1,-1,-1,-1,-1,-1,-1,-1,-1,-1,-1,-1,-1,-1,-1,-1,-1,-1,-1,-1,-1,-1,-1,-1,-1,-1,-1,-1,-1,-1,-1,-1],"loss_changes":[9.6420006E1,6.430052E1,2.0834053E1,4.483065E1,1.4605593E1,9.501914E0,2.1505806E1,4.5911404E1,1.2014076E1,1.2467782E1,1.2404354E1,1.0093457E1,7.9715576E0,1.4287254E1,1.03301935E1,3.4917072E1,1.638496E1,1.0534721E1,1.2092941E1,9.907666E0,1.7982128E1,9.028281E0,3.5900803E0,1.5812848E1,1.2297855E1,1.1968638E1,7.0193386E0,1.2436455E1,2.8990498E0,7.6260643E0,0E0,3.5061264E1,1.7035192E1,8.317533E0,9.78841E0,1.1812351E1,1.059685E1,8.380333E0,8.718789E0,7.8343534E0,6.2646008E0,2.1167522E1,5.3134594E0,7.244938E0,5.4609075E0,4.334694E0,0E0,1.08496895E1,8.95292E0,9.565329E0,4.180892E0,6.94249E0,8.980756E0,4.763113E0,0E0,1.067643E1,7.4178505E-1,0E0,7.823658E-1,4.554941E0,0E0,0E0,0E0,0E0,0E0,0E0,0E0,0E0,0E0,0E0,0E0,0E0,0E0,0E0,0E0,0E0,0E0,0E0,0E0,0E0,0E0,0E0,0E0,0E0,0E0,0E0,0E0,0E0,0E0,0E0,0E0,0E0,0E0,0E0,0E0,0E0,0E0,0E0,0E0,0E0,0E0,0E0,0E0,0E0,0E0,0E0,0E0,0E0,0E0,0E0,0E0,0E0,0E0],"parents":[2147483647,0,0,1,1,2,2,3,3,4,4,5,5,6,6,7,7,8,8,9,9,10,10,11,11,12,12,13,13,14,14,15,15,16,16,17,17,18,18,19,19,20,20,21,21,22,22,23,23,24,24,25,25,26,26,27,27,28,28,29,29,31,31,32,32,33,33,34,34,35,35,36,36,37,37,38,38,39,39,40,40,41,41,42,42,43,43,44,44,45,45,47,47,48,48,49,49,50,50,51,51,52,52,53,53,55,55,56,56,58,58,59,59],"right_children":[2,4,6,8,10,12,14,16,18,20,22,24,26,28,30,32,34,36,38,40,42,44,46,48,50,52,54,56,58,60,-1,62,64,66,68,70,72,74,76,78,80,82,84,86,88,90,-1,92,94,96,98,100,102,104,-1,106,108,-1,110,112,-1,-1,-1,-1,-1,-1,-1,-1,-1,-1,-1,-1,-1,-1,-1,-1,-1,-1,-1,-1,-1,-1,-1,-1,-1,-1,-1,-1,-1,-1,-1,-1,-1,-1,-1,-1,-1,-1,-1,-1,-1,-1,-1,-1,-1,-1,-1,-1,-1,-1,-1,-1,-1],"split_conditions":[2.0999496E-1,4.1438988E-1,2.1740553E-1,1.04546E-1,1.7323811E-1,6.869341E-1,1.531316E-1,2.518223E-1,1.2417725E-1,1.8727161E-1,5.307291E-1,1.2094852E-1,3.812772E-2,8.7246585E-1,5.399968E-1,7.4350005E-3,1.5774451E-1,1.5121154E-1,2.7839336E-1,2.1988572E-1,1.4201997E-1,1.8882006E-1,3.1322882E-1,3.2189384E-1,9.231644E-3,2.2235608E-1,7.679538E-3,5.932717E-1,2.3629883E-1,6.735355E-1,9.40388E-2,2.0642594E-1,7.123288E-2,4.1726384E-1,5.3938097E-1,2.4325268E-1,1.9889149E-1,1.4698261E-1,3.2635653E-1,1.302192E-1,3.861351E-2,9.564875E-2,9.726642E-2,2.1177621E-1,1.18630804E-1,2.0465332E-1,6.1180997E-3,2.5639436E-1,9.882441E-2,1.7399149E-1,1.0685472E-1,1.6177468E-1,3.2376865E-1,7.273161E-2,-7.7336885E-2,7.325314E-2,3.6843738E-1,2.0748334E-2,7.658332E-1,1.455253E-1,2.5149757E-2,-1.6494727E-2,3.9591445E-3,1.3749475E-2,-1.4255217E-2,1.7615352E-2,-1.617012E-2,2.9712567E-2,7.825357E-2,-3.299806E-2,3.156394E-2,-5.96271E-3,-4.182979E-2,-4.840864E-2,1.9509021E-2,7.842544E-2,-3.7640627E-2,7.96031E-3,-9.914934E-3,-9.467844E-2,2.3780898E-3,4.383173E-3,1.0616068E-1,1.1843828E-1,3.417298E-2,6.0374122E-2,-1.24546485E-2,-1.6447183E-3,8.959429E-2,4.781547E-2,1.2739158E-1,2.2379238E-2,-3.1893168E-2,-9.24573E-2,1.6217675E-3,-1.4796621E-3,9.68847E-2,9.034365E-2,2.4792086E-2,6.2463194E-4,-6.511626E-2,3.8594607E-2,-1.3959738E-2,4.2433158E-2,1.3703907E-1,2.9993204E-2,1.1332967E-2,4.9364652E-2,1.3761044E-1,1.2434316E-1,5.0166506E-2,-2.9007554E-2,-1.2667687E-1],"split_indices":[18,30,31,20,18,30,28,23,22,24,10,9,7,30,31,2,26,31,5,28,26,18,9,7,8,9,26,31,31,30,0,4,7,23,23,23,13,28,30,6,1,22,13,13,20,9,0,1,5,24,4,31,9,28,0,19,30,0,5,9,0,0,0,0,0,0,0,0,0,0,0,0,0,0,0,0,0,0,0,0,0,0,0,0,0,0,0,0,0,0,0,0,0,0,0,0,0,0,0,0,0,0,0,0,0,0,0,0,0,0,0,0,0],"split_type":[0,0,0,0,0,0,0,0,0,0,0,0,0,0,0,0,0,0,0,0,0,0,0,0,0,0,0,0,0,0,0,0,0,0,0,0,0,0,0,0,0,0,0,0,0,0,0,0,0,0,0,0,0,0,0,0,0,0,0,0,0,0,0,0,0,0,0,0,0,0,0,0,0,0,0,0,0,0,0,0,0,0,0,0,0,0,0,0,0,0,0,0,0,0,0,0,0,0,0,0,0,0,0,0,0,0,0,0,0,0,0,0,0],"sum_hessian":[1.4477491E4,1.05381875E4,3.939303E3,8.325665E3,2.2125227E3,2.5882498E3,1.3510533E3,6.706025E3,1.61964E3,1.9740842E3,2.3843848E2,2.2237102E3,3.6453967E2,1.317642E3,3.3411407E1,6.136027E3,5.6999817E2,1.242765E3,3.76875E2,1.7374304E3,2.3665376E2,1.9990683E2,3.8531643E1,6.803782E2,1.5433319E3,2.4032916E2,1.24210495E2,1.2915781E3,2.6063766E1,3.0176718E1,3.234691E0,4.9497197E3,1.186307E3,3.5274014E2,2.1725804E2,5.6885016E2,6.7391486E2,3.5264514E2,2.4229849E1,1.7112125E3,2.6217976E1,1.996421E2,3.701166E1,8.710453E1,1.1280231E2,3.305475E1,5.4768944E0,6.413937E2,3.898451E1,1.5016289E3,4.170298E1,6.724509E1,1.7308409E2,1.204657E2,3.7447956E0,1.2793967E3,1.2181424E1,4.971895E0,2.1091871E1,2.4452862E1,5.723856E0,3.8823972E3,1.0673226E3,9.014405E2,2.8486655E2,2.5147496E2,1.0126519E2,1.6021368E2,5.7044342E1,5.3986816E2,2.8981966E1,5.785292E2,9.538572E1,3.3416815E2,1.8476976E1,1.3487746E1,1.0742102E1,1.4160615E3,2.9515097E2,1.5477544E1,1.0740433E1,1.7749382E2,2.2148283E1,2.433297E1,1.2678694E1,7.0885216E1,1.6219313E1,1.0682586E2,5.9764485E0,1.3928284E1,1.9126465E1,6.031741E2,3.8219627E1,1.9241915E1,1.9742596E1,1.4926786E3,8.9502945E0,1.7233284E1,2.4469698E1,4.2843998E1,2.4401085E1,1.308297E2,4.225439E1,1.1549774E2,4.9679604E0,7.5846027E2,5.2093646E2,3.2362702E0,8.945154E0,1.6886427E1,4.205445E0,7.9811053E0,1.6471756E1],"tree_param":{"num_deleted":"0","num_feature":"32","num_nodes":"113","size_leaf_vector":"1"}},{"base_weights":[5.954366E-3,-4.2577818E-2,1.2323954E-1,-2.3535358E-2,-3.4058648E-1,9.7435236E-2,3.946649E-1,2.2385696E-2,-1.5083665E-1,-4.2693672E-1,2.3072354E-2,1.1338061E-1,-2.9586086E-1,1.4158385E-1,4.7115102E-1,1.4598288E-2,6.1448777E-1,-9.7172335E-2,-2.4235272E-1,-7.297026E-1,-3.5513338E-1,2.6362464E-1,-2.906962E-1,1.6345656E-1,5.4022513E-2,1.2106961E-1,-4.7858715E-1,3.3603957E-1,-2.5605696E-1,1.2542986E0,4.1788217E-1,-2.1670036E-2,1.1910292E-1,-2.7605206E-2,6.8376917E-1,-3.2367837E-2,-1.9020128E-1,-1.9127078E-1,-6.121839E-1,-1.1173886E0,-5.476196E-1,-3.835819E-1,5.99328E-1,8.5737586E-2,6.594831E-1,-3.9832297E-1,9.871919E-2,1.1759835E-1,3.2412937E-1,4.077952E-2,1.3486814E0,-2.1375977E-1,7.8575265E-1,-7.9203755E-1,-2.3210312E-1,6.235512E-1,1.5110176E-2,-5.0144684E-1,4.4662824E-1,1.4672367E-1,2.2343546E-2,4.612231E-1,-1.9392033E-1,-2.9084792E-3,3.901177E-2,1.6787186E-2,-2.1499123E-3,-3.491495E-2,7.532657E-2,-6.774803E-3,3.6880296E-2,-3.4865074E-2,-3.1595677E-3,-2.8074035E-2,8.7011216E-4,2.6907802E-2,-6.733401E-2,-1.260575E-1,-2.0985877E-2,-6.6035025E-2,6.776758E-2,-2.7413635E-2,-5.6408335E-2,1.471669E-1,-1.6187157E-2,-1.8590428E-2,5.0117027E-2,1.20738804E-1,1.28551815E-2,-2.7265338E-2,-1.4303206E-1,1.0012394E-2,4.741185E-2,4.574811E-2,1.2825235E-2,-1.814315E-3,1.4820253E-2,1.5296018E-1,4.0357962E-2,2.8773818E-2,-7.008223E-2,9.409531E-2,1.9846909E-2,-9.3130924E-2,3.2756496E-2,1.00615144E-1,-3.8832467E-2,1.2734489E-1,2.9704003E-2,-3.3233844E-2,4.1169923E-2,-1.2221159E-1,-9.3247385E-5,7.7815466E-2,-5.8095757E-4,3.5106502E-2,7.3702365E-2,4.9430907E-2,-1.0082529E-1],"categories":[],"categories_nodes":[],"categories_segments":[],"categories_sizes":[],"default_left":[0,0,0,0,0,0,0,0,0,0,0,0,0,0,0,0,0,0,0,0,0,0,0,0,0,0,0,0,0,0,0,0,0,0,0,0,0,0,0,0,0,0,0,0,0,0,0,0,0,0,0,0,0,0,0,0,0,0,0,0,0,0,0,0,0,0,0,0,0,0,0,0,0,0,0,0,0,0,0,0,0,0,0,0,0,0,0,0,0,0,0,0,0,0,0,0,0,0,0,0,0,0,0,0,0,0,0,0,0,0,0,0,0,0,0,0,0,0,0],"id":4,"left_children":[1,3,5,7,9,11,13,15,17,19,21,23,25,27,29,31,33,35,37,39,41,43,45,47,49,51,53,55,57,59,61,63,65,-1,67,69,71,73,75,77,79,81,83,85,87,89,-1,91,93,95,97,99,101,103,105,107,109,111,113,-1,-1,115,117,-1,-1,-1,-1,-1,-1,-1,-1,-1,-1,-1,-1,-1,-1,-1,-1,-1,-1,-1,-1,-1,-1,-1,-1,-1,-1,-1,-1,-1,-1,-1,-1,-1,-1,-1,-1,-1,-1,-1,-1,-1,-1,-1,-1,-1,-1,-1,-1,-1,-1,-1,-1,-1,-1,-1,-1],"loss_changes":[8.251252E1,5.8132095E1,2.9629501E1,5.6354397E1,1.9373138E1,2.4324112E1,6.9894447E0,3.258649E1,1.2493229E1,1.0448647E1,9.040777E0,1.1045128E1,1.1602315E1,6.8263345E0,1.1057194E1,2.6513634E1,5.8905296E0,9.697583E0,1.762265E1,5.868515E0,1.1188389E1,4.6539326E0,7.4655232E0,1.479921E1,2.908081E1,1.06102705E1,7.8570194E0,5.3774853E0,5.2287474E0,3.3042545E0,7.1510468E0,1.5824258E1,1.2376463E1,0E0,6.442581E0,1.3517423E1,1.657651E1,1.4888319E1,6.3539467E0,3.3509598E0,9.590727E0,7.5328903E0,8.332514E0,5.564805E0,5.7456884E0,5.743595E0,0E0,9.696733E0,1.1569122E1,1.0720927E1,2.1271229E0,7.9902673E0,1.1527042E0,7.507635E0,1.2050731E1,6.036456E0,4.1550846E0,7.835619E0,1.2708662E0,0E0,0E0,7.1732826E0,1.0695375E1,0E0,0E0,0E0,0E0,0E0,0E0,0E0,0E0,0E0,0E0,0E0,0E0,0E0,0E0,0E0,0E0,0E0,0E0,0E0,0E0,0E0,0E0,0E0,0E0,0E0,0E0,0E0,0E0,0E0,0E0,0E0,0E0,0E0,0E0,0E0,0E0,0E0,0E0,0E0,0E0,0E0,0E0,0E0,0E0,0E0,0E0,0E0,0E0,0E0,0E0,0E0,0E0,0E0,0E0,0E0,0E0],"parents":[2147483647,0,0,1,1,2,2,3,3,4,4,5,5,6,6,7,7,8,8,9,9,10,10,11,11,12,12,13,13,14,14,15,15,16,16,17,17,18,18,19,19,20,20,21,21,22,22,23,23,24,24,25,25,26,26,27,27,28,28,29,29,30,30,31,31,32,32,34,34,35,35,36,36,37,37,38,38,39,39,40,40,41,41,42,42,43,43,44,44,45,45,47,47,48,48,49,49,50,50,51,51,52,52,53,53,54,54,55,55,56,56,57,57,58,58,61,61,62,62],"right_children":[2,4,6,8,10,12,14,16,18,20,22,24,26,28,30,32,34,36,38,40,42,44,46,48,50,52,54,56,58,60,62,64,66,-1,68,70,72,74,76,78,80,82,84,86,88,90,-1,92,94,96,98,100,102,104,106,108,110,112,114,-1,-1,116,118,-1,-1,-1,-1,-1,-1,-1,-1,-1,-1,-1,-1,-1,-1,-1,-1,-1,-1,-1,-1,-1,-1,-1,-1,-1,-1,-1,-1,-1,-1,-1,-1,-1,-1,-1,-1,-1,-1,-1,-1,-1,-1,-1,-1,-1,-1,-1,-1,-1,-1,-1,-1,-1,-1,-1,-1],"split_conditions":[4.1180664E-1,3.721205E-1,3.9510584E-1,2.8932866E-2,1.2179017E-3,5.149085E-1,2.061702E-1,5.2675295E-1,1.6703172E-1,9.996932E-3,2.0725414E-1,1.1966042E-1,4.567185E-2,1.8133248E-1,2.4706263E-2,2.1254715E-1,9.369898E-2,7.931604E-2,2.565711E-1,7.626191E-2,2.1075262E-3,1.268214E-1,1.473606E-1,2.40766E-1,2.0580852E-1,5.5688995E-1,2.2017507E-1,7.0040214E-1,3.4572172E-1,1.9407749E-1,4.296536E-1,2.4526158E-1,9.627104E-2,-2.7605206E-2,1.2002246E-1,1.8370245E-1,1.6285494E-1,2.101076E-1,7.994026E-4,1.5147448E-1,6.706608E-2,1.03360206E-1,1.27577E-1,4.5320702E-1,1.6807395E-1,3.4753087E-1,9.871919E-2,7.550304E-1,3.509696E-2,3.7462607E-2,2.507617E-2,1.9657435E-1,1.816941E-1,7.15031E-1,8.150044E-2,3.475603E-1,2.4322228E-1,9.787607E-2,3.4073627E-1,1.4672367E-1,2.2343546E-2,7.11782E-1,2.012657E-1,-2.9084792E-3,3.901177E-2,1.6787186E-2,-2.1499123E-3,-3.491495E-2,7.532657E-2,-6.774803E-3,3.6880296E-2,-3.4865074E-2,-3.1595677E-3,-2.8074035E-2,8.7011216E-4,2.6907802E-2,-6.733401E-2,-1.260575E-1,-2.0985877E-2,-6.6035025E-2,6.776758E-2,-2.7413635E-2,-5.6408335E-2,1.471669E-1,-1.6187157E-2,-1.8590428E-2,5.0117027E-2,1.20738804E-1,1.28551815E-2,-2.7265338E-2,-1.4303206E-1,1.0012394E-2,4.741185E-2,4.574811E-2,1.2825235E-2,-1.814315E-3,1.4820253E-2,1.5296018E-1,4.0357962E-2,2.8773818E-2,-7.008223E-2,9.409531E-2,1.9846909E-2,-9.3130924E-2,3.2756496E-2,1.00615144E-1,-3.8832467E-2,1.2734489E-1,2.9704003E-2,-3.3233844E-2,4.1169923E-2,-1.2221159E-1,-9.3247385E-5,7.7815466E-2,-5.8095757E-4,3.5106502E-2,7.3702365E-2,4.9430907E-2,-1.0082529E-1],"split_indices":[30,25,12,20,24,25,9,23,20,10,31,25,31,9,24,18,24,9,15,6,26,7,15,10,26,30,7,30,31,25,9,15,19,0,30,23,25,31,13,19,29,31,3,25,7,10,0,30,24,7,13,10,19,30,3,18,31,24,4,0,0,10,13,0,0,0,0,0,0,0,0,0,0,0,0,0,0,0,0,0,0,0,0,0,0,0,0,0,0,0,0,0,0,0,0,0,0,0,0,0,0,0,0,0,0,0,0,0,0,0,0,0,0,0,0,0,0,0,0],"split_type":[0,0,0,0,0,0,0,0,0,0,0,0,0,0,0,0,0,0,0,0,0,0,0,0,0,0,0,0,0,0,0,0,0,0,0,0,0,0,0,0,0,0,0,0,0,0,0,0,0,0,0,0,0,0,0,0,0,0,0,0,0,0,0,0,0,0,0,0,0,0,0,0,0,0,0,0,0,0,0,0,0,0,0,0,0,0,0,0,0,0,0,0,0,0,0,0,0,0,0,0,0,0,0,0,0,0,0,0,0,0,0,0,0,0,0,0,0,0,0],"sum_hessian":[1.4492618E4,1.02507E4,4.2419185E3,9.63636E3,6.1433936E2,3.8752292E3,3.6668915E2,7.0818003E3,2.5545603E3,4.9653812E2,1.1780125E2,3.725166E3,1.5006316E2,8.606651E1,2.8062265E2,6.9910464E3,9.075367E1,1.6122839E3,9.4227625E2,9.316089E1,4.0337723E2,6.695124E1,5.085E1,2.0187014E3,1.7064646E3,4.566303E1,1.0440013E2,5.807357E1,2.7992943E1,1.6316536E1,2.643061E2,5.1897725E3,1.8012743E3,6.2311287E0,8.452254E1,9.517278E2,6.6055615E2,8.2949243E2,1.12783844E2,2.795468E1,6.5206215E1,3.9238474E2,1.0992477E1,4.7207016E1,1.9744228E1,4.7606976E1,3.2430234E0,1.5722999E3,4.4640155E2,1.6902836E3,1.6181078E1,3.071734E1,1.4945686E1,4.4804195E1,5.959594E1,2.9969862E1,2.8103708E1,2.1065279E1,6.9276648E0,1.3091915E1,3.22462E0,2.4720345E2,1.7102657E1,5.0991284E3,9.064402E1,1.337774E3,4.635003E2,4.983936E0,7.9538605E1,8.75588E2,7.613977E1,3.2952597E2,3.310302E2,5.7315356E2,2.5633887E2,6.9921255E0,1.0579172E2,2.3713976E1,4.2407026E0,6.0209454E1,4.996759E0,2.4618513E2,1.4619962E2,4.748581E0,6.2438965E0,2.8731766E1,1.8475248E1,8.997076E0,1.0747153E1,4.3652386E1,3.95459E0,1.5003246E3,7.1975296E1,2.6449152E2,1.8191005E2,1.0914899E3,5.987937E2,1.2973337E1,3.2077403E0,1.523487E1,1.54824705E1,1.1210593E1,3.7350934E0,4.007643E1,4.7277637E0,5.995254E0,5.3600685E1,8.94969E0,2.1020172E1,1.493187E1,1.3171839E1,7.9610257E0,1.3104253E1,3.7101448E0,3.2175198E0,1.7853134E2,6.8672104E1,9.415435E0,7.6872225E0],"tree_param":{"num_deleted":"0","num_feature":"32","num_nodes":"119","size_leaf_vector":"1"}},{"base_weights":[-6.451313E-4,-8.818592E-2,7.647577E-2,-7.422699E-2,-5.0299555E-1,9.32024E-2,-1.6490729E-1,-1.2624797E-1,1.753655E-2,-5.503749E-1,1.0166701E-1,1.0628307E-1,-2.3956732E-1,-2.941475E-1,1.5511812E-2,-1.15719356E-1,-4.4009432E-1,7.681535E-2,-1.3318545E-1,-3.422022E-1,-7.7566415E-1,-2.655791E-1,9.1861315E-2,8.850195E-2,2.8628692E-1,5.123567E-1,-2.9275054E-1,-5.4646546E-1,-1.4503197E-1,2.5667474E-1,-2.2647816E-1,-1.909094E-1,-7.131441E-2,-6.046501E-1,6.995696E-2,1.0583422E-1,-2.220819E-1,-1.5395595E-1,6.600062E-1,3.1737205E-1,-4.9355257E-1,-8.3891636E-1,2.6777837E-2,-1.2365409E-1,2.5311235E-1,8.588341E-2,1.2312773E0,2.229113E-1,6.137992E-1,1.2955865E-1,1.0632586E-1,-2.5455153E-1,-1.0561804E0,-7.4412566E-1,-7.900984E-2,-7.3763597E-1,-6.8994686E-2,-3.8857082E-1,5.000906E-1,1.02997415E-1,-2.9100847E-1,-1.3717309E-2,-3.7226755E-2,-5.8073727E-3,-3.476462E-2,-4.7701534E-2,-1.1034482E-1,3.3909E-2,-7.9350546E-2,1.3150647E-2,-1.4052463E-2,-3.5752963E-2,3.1508908E-2,-1.1506295E-2,-6.664022E-2,-4.5942392E-2,1.1002054E-1,-1.7425068E-2,1.0569819E-1,-1.004739E-1,-2.558502E-2,-9.791099E-2,-2.895408E-2,7.923607E-2,-4.8151955E-2,6.744906E-3,2.1834206E-2,5.9229534E-2,1.6774504E-1,1.9711746E-2,8.4325485E-2,6.970069E-2,-3.0606613E-2,-5.051585E-2,7.134268E-2,-3.1276595E-2,6.513036E-2,-1.3850608E-1,-1.9817157E-2,-6.158812E-2,-1.3921742E-1,-5.49135E-2,3.846347E-2,-1.0796767E-1,1.6411541E-2,8.600567E-3,-3.8160738E-2,8.296768E-3,-8.488464E-2,3.033312E-2,1.0136608E-1,-1.9738781E-4,-6.2306594E-2],"categories":[],"categories_nodes":[],"categories_segments":[],"categories_sizes":[],"default_left":[0,0,0,0,0,0,0,0,0,0,0,0,0,0,0,0,0,0,0,0,0,0,0,0,0,0,0,0,0,0,0,0,0,0,0,0,0,0,0,0,0,0,0,0,0,0,0,0,0,0,0,0,0,0,0,0,0,0,0,0,0,0,0,0,0,0,0,0,0,0,0,0,0,0,0,0,0,0,0,0,0,0,0,0,0,0,0,0,0,0,0,0,0,0,0,0,0,0,0,0,0,0,0,0,0,0,0,0,0,0,0,0,0],"id":5,"left_children":[1,3,5,7,9,11,13,15,17,19,21,23,25,27,29,31,33,35,37,39,41,43,-1,45,47,49,51,53,55,57,59,61,63,65,67,69,71,73,75,77,79,81,-1,-1,83,85,87,89,91,93,-1,95,97,99,101,103,105,107,109,-1,111,-1,-1,-1,-1,-1,-1,-1,-1,-1,-1,-1,-1,-1,-1,-1,-1,-1,-1,-1,-1,-1,-1,-1,-1,-1,-1,-1,-1,-1,-1,-1,-1,-1,-1,-1,-1,-1,-1,-1,-1,-1,-1,-1,-1,-1,-1,-1,-1,-1,-1,-1,-1],"loss_changes":[9.759463E1,3.911137E1,3.1035011E1,3.1290024E1,6.4044037E0,3.1298874E1,1.1643788E1,1.3713448E1,2.1185833E1,9.206715E0,5.313267E0,2.20755E1,1.0999943E1,1.0781857E1,1.2226725E1,1.3476486E1,1.1433775E1,1.4779715E1,1.1074203E1,1.0978617E1,6.691757E0,6.5544195E0,0E0,1.8605442E1,1.266655E1,3.5806847E0,7.026806E0,9.773254E0,8.1688385E0,1.6710379E1,8.688593E0,1.4532433E1,9.2604065E0,5.8339233E0,8.054884E0,9.839134E0,1.1080862E1,1.2858777E1,9.015603E0,7.7938786E0,1.0376072E1,6.6678925E0,0E0,0E0,3.8644364E0,1.5300083E1,2.837368E0,8.0828705E0,7.893982E0,4.8220844E0,0E0,1.3035649E1,2.8667965E0,5.1869125E0,7.4549565E0,6.6518774E0,8.033841E0,6.4919486E0,7.326538E0,0E0,9.546635E0,0E0,0E0,0E0,0E0,0E0,0E0,0E0,0E0,0E0,0E0,0E0,0E0,0E0,0E0,0E0,0E0,0E0,0E0,0E0,0E0,0E0,0E0,0E0,0E0,0E0,0E0,0E0,0E0,0E0,0E0,0E0,0E0,0E0,0E0,0E0,0E0,0E0,0E0,0E0,0E0,0E0,0E0,0E0,0E0,0E0,0E0,0E0,0E0,0E0,0E0,0E0,0E0],"parents":[2147483647,0,0,1,1,2,2,3,3,4,4,5,5,6,6,7,7,8,8,9,9,10,10,11,11,12,12,13,13,14,14,15,15,16,16,17,17,18,18,19,19,20,20,21,21,23,23,24,24,25,25,26,26,27,27,28,28,29,29,30,30,31,31,32,32,33,33,34,34,35,35,36,36,37,37,38,38,39,39,40,40,41,41,44,44,45,45,46,46,47,47,48,48,49,49,51,51,52,52,53,53,54,54,55,55,56,56,57,57,58,58,60,60],"right_children":[2,4,6,8,10,12,14,16,18,20,22,24,26,28,30,32,34,36,38,40,42,44,-1,46,48,50,52,54,56,58,60,62,64,66,68,70,72,74,76,78,80,82,-1,-1,84,86,88,90,92,94,-1,96,98,100,102,104,106,108,110,-1,112,-1,-1,-1,-1,-1,-1,-1,-1,-1,-1,-1,-1,-1,-1,-1,-1,-1,-1,-1,-1,-1,-1,-1,-1,-1,-1,-1,-1,-1,-1,-1,-1,-1,-1,-1,-1,-1,-1,-1,-1,-1,-1,-1,-1,-1,-1,-1,-1,-1,-1,-1,-1],"split_conditions":[2.6488373E-1,4.8784155E-1,1.5599E-1,5.9322394E-2,1.00818835E-2,3.3221704E-1,3.3296645E-2,1.9258311E-1,7.2245754E-2,1.8721625E-1,1.602223E-1,1.2525636E-1,6.850553E-2,1.195535E-2,6.127097E-4,4.848878E-2,2.243063E-1,3.5557058E-1,1.4589587E-1,6.1439175E-2,5.7823026E-1,5.149085E-1,9.1861315E-2,3.613997E-1,3.2226855E-1,3.135088E-1,5.089578E-1,2.4951169E-1,9.7496E-2,2.559381E-1,6.8645306E-2,3.3301976E-2,5.4067492E-2,6.761478E-2,3.4594065E-1,1.0991226E-2,2.0864122E-1,4.7194514E-1,9.435817E-2,1.4644209E-2,1.0505009E-1,1.9429892E-2,2.6777837E-2,-1.2365409E-1,4.0675323E-2,2.7819666E-1,3.405078E-2,5.5909865E-2,7.795456E-2,3.9742067E-1,1.0632586E-1,5.3014945E-2,3.2520628E-1,2.9774861E-2,7.007477E-2,1.7366244E-1,2.0764609E-1,2.0420885E-1,2.1200202E-1,1.02997415E-1,1.9240001E-1,-1.3717309E-2,-3.7226755E-2,-5.8073727E-3,-3.476462E-2,-4.7701534E-2,-1.1034482E-1,3.3909E-2,-7.9350546E-2,1.3150647E-2,-1.4052463E-2,-3.5752963E-2,3.1508908E-2,-1.1506295E-2,-6.664022E-2,-4.5942392E-2,1.1002054E-1,-1.7425068E-2,1.0569819E-1,-1.004739E-1,-2.558502E-2,-9.791099E-2,-2.895408E-2,7.923607E-2,-4.8151955E-2,6.744906E-3,2.1834206E-2,5.9229534E-2,1.6774504E-1,1.9711746E-2,8.4325485E-2,6.970069E-2,-3.0606613E-2,-5.051585E-2,7.134268E-2,-3.1276595E-2,6.513036E-2,-1.3850608E-1,-1.9817157E-2,-6.158812E-2,-1.3921742E-1,-5.49135E-2,3.846347E-2,-1.0796767E-1,1.6411541E-2,8.600567E-3,-3.8160738E-2,8.296768E-3,-8.488464E-2,3.033312E-2,1.0136608E-1,-1.9738781E-4,-6.2306594E-2],"split_indices":[14,25,3,23,15,20,7,19,20,13,23,24,13,1,11,18,14,25,12,3,30,25,0,2,15,30,9,9,10,30,7,19,15,13,20,29,18,20,14,3,5,20,0,0,15,12,5,2,18,19,0,1,5,19,12,29,1,3,7,0,10,0,0,0,0,0,0,0,0,0,0,0,0,0,0,0,0,0,0,0,0,0,0,0,0,0,0,0,0,0,0,0,0,0,0,0,0,0,0,0,0,0,0,0,0,0,0,0,0,0,0,0,0],"split_type":[0,0,0,0,0,0,0,0,0,0,0,0,0,0,0,0,0,0,0,0,0,0,0,0,0,0,0,0,0,0,0,0,0,0,0,0,0,0,0,0,0,0,0,0,0,0,0,0,0,0,0,0,0,0,0,0,0,0,0,0,0,0,0,0,0,0,0,0,0,0,0,0,0,0,0,0,0,0,0,0,0,0,0,0,0,0,0,0,0,0,0,0,0,0,0,0,0,0,0,0,0,0,0,0,0,0,0,0,0,0,0,0,0],"sum_hessian":[1.4453669E4,6.770056E3,7.6836123E3,6.551025E3,2.1903119E2,7.1866426E3,4.969699E2,4.181332E3,2.369693E3,2.0335233E2,1.5678869E1,6.915775E3,2.7086746E2,2.8950894E2,2.0746097E2,4.047246E3,1.3408577E2,1.7016068E3,6.680863E2,1.0723103E2,9.6121284E1,1.119764E1,4.4812293E0,6.2959014E3,6.198738E2,1.7198244E1,2.5366922E2,1.06301346E2,1.8320758E2,1.04084625E2,1.03376335E2,1.5006584E3,2.5465876E3,1.0138645E2,3.269931E1,1.5519171E3,1.4968965E2,6.519464E2,1.6139893E1,1.9685474E1,8.754556E1,9.0902725E1,5.2185636E0,3.4842138E0,7.713426E0,6.282668E3,1.3233388E1,5.210361E2,9.883771E1,1.0983192E1,6.2150526E0,2.4297607E2,1.0693147E1,7.414422E1,3.2157127E1,1.9695179E1,1.635124E2,2.8234255E1,7.585037E1,4.2434063E0,9.9132935E1,1.1594282E3,3.4123022E2,2.4316453E3,1.1494239E2,8.244647E1,1.8939978E1,2.5480412E1,7.218899E0,1.4062487E3,1.4566844E2,1.19961845E2,2.9727806E1,6.072758E2,4.467059E1,4.4789762E0,1.1660915E1,1.2203161E1,7.482313E0,2.6629787E1,6.091577E1,7.165344E1,1.9249285E1,4.4814262E0,3.232E0,5.5171123E3,7.6555554E2,6.490177E0,6.7432113E0,5.0165616E2,1.9379883E1,9.0960724E1,7.876989E0,5.2449718E0,5.7382207E0,2.2902312E2,1.3952961E1,7.201819E0,3.4913278E0,6.3652493E1,1.0491726E1,1.5982512E1,1.6174616E1,1.4216389E1,5.478791E0,1.0958347E2,5.3928936E1,1.4244093E1,1.3990162E1,5.6130833E1,1.9719536E1,5.369874E1,4.5434193E1],"tree_param":{"num_deleted":"0","num_feature":"32","num_nodes":"113","size_leaf_vector":"1"}},{"base_weights":[1.3664053E-3,-6.625191E-2,9.2093E-2,-4.937504E-2,-2.8428492E-1,1.05671994E-1,-2.7629963E-1,-6.1382122E-2,2.451228E-1,-1.9472353E-1,-5.2225226E-1,6.340689E-2,2.001971E-1,6.496741E-1,-3.1143385E-1,-3.687147E-2,-1.6795215E-1,3.157565E-1,-1.0052174E-1,-1.515702E-1,-1.0195161E0,-1.042492E0,-4.095992E-1,2.8707119E-2,2.1077102E-1,2.2076131E-1,-2.9942414E-1,-1.0652969E-2,1.1819488E-1,-8.9921904E-1,-2.512275E-1,-4.0734053E-2,7.440177E-1,-1.391478E-1,-4.2190614E-1,-1.9741125E-1,3.637961E-1,-3.376571E-1,4.7457436E-1,-1.9809988E-1,2.7737737E-1,-1.3422736E0,3.733171E-2,-1.2621754E0,1.0166654E-3,-5.5511755E-1,-3.1265393E-2,8.636705E-2,-5.811357E-2,3.0703372E-1,-1.408474E-2,2.144852E-1,1.3266227E0,-4.446931E-1,2.3975238E-1,-1.191639E0,3.0082453E-2,3.4531718E-1,-3.1086788E-1,-4.8373905E-3,3.189608E-2,9.555273E-2,-1.3502023E-2,-1.1761972E-2,-5.6602128E-2,-6.4816944E-2,-1.954131E-2,7.5318636E-3,-1.3781297E-1,3.0923074E-2,1.0154094E-1,-5.7226133E-2,4.8658144E-2,-6.264472E-3,9.0926975E-2,-2.4474775E-2,4.1453145E-2,5.0889224E-2,-6.1928183E-2,-5.8867663E-2,-1.4941417E-1,-1.3977936E-1,-3.0437464E-2,-6.2511146E-2,2.9242624E-2,-2.641113E-2,8.845748E-2,1.3142784E-2,-1.2319062E-2,-2.3809578E-3,-3.6980595E-2,5.838458E-3,3.94003E-2,-1.527927E-2,3.310221E-2,1.123302E-2,2.7017621E-2,1.5404372E-1,6.615465E-2,-7.468249E-2,-4.0595876E-3,7.143023E-2,-6.527477E-2,-1.3802485E-1,-4.430978E-2,-4.8075687E-2,6.846178E-2,2.6689801E-2,-3.8038585E-2],"categories":[],"categories_nodes":[],"categories_segments":[],"categories_sizes":[],"default_left":[0,0,0,0,0,0,0,0,0,0,0,0,0,0,0,0,0,0,0,0,0,0,0,0,0,0,0,0,0,0,0,0,0,0,0,0,0,0,0,0,0,0,0,0,0,0,0,0,0,0,0,0,0,0,0,0,0,0,0,0,0,0,0,0,0,0,0,0,0,0,0,0,0,0,0,0,0,0,0,0,0,0,0,0,0,0,0,0,0,0,0,0,0,0,0,0,0,0,0,0,0,0,0,0,0,0,0,0,0],"id":6,"left_children":[1,3,5,7,9,11,13,15,17,19,21,23,25,27,29,31,33,35,37,39,41,43,45,47,49,51,53,-1,-1,55,57,59,61,63,65,67,69,71,73,75,77,79,-1,81,-1,83,85,87,89,91,93,95,97,99,101,103,-1,105,107,-1,-1,-1,-1,-1,-1,-1,-1,-1,-1,-1,-1,-1,-1,-1,-1,-1,-1,-1,-1,-1,-1,-1,-1,-1,-1,-1,-1,-1,-1,-1,-1,-1,-1,-1,-1,-1,-1,-1,-1,-1,-1,-1,-1,-1,-1,-1,-1,-1,-1],"loss_changes":[8.854993E1,3.0381668E1,3.0848225E1,2.7142782E1,1.2475086E1,2.3716309E1,7.298277E0,1.9243645E1,7.3924465E0,1.5143118E1,8.885872E0,2.0992052E1,1.8922066E1,3.5466273E0,7.1586E0,1.8057137E1,9.968407E0,6.253666E0,7.173416E0,8.286936E0,1.0147673E1,6.594677E0,7.3267536E0,1.6674355E1,1.697815E1,1.1805862E1,5.83035E0,0E0,0E0,7.1669245E0,6.9979954E0,1.6397964E1,5.687706E0,1.1259098E1,6.941742E0,7.2790165E0,7.703165E0,7.4784403E0,3.7229505E0,1.0750894E1,8.733716E0,9.1753197E-1,0E0,2.416111E0,0E0,5.9620857E0,8.403476E0,1.8918716E1,1.4157182E1,1.179327E1,1.1297119E1,9.918816E0,1.3628197E-1,6.954673E0,7.2311983E0,1.4176865E0,0E0,5.376005E0,7.215666E0,0E0,0E0,0E0,0E0,0E0,0E0,0E0,0E0,0E0,0E0,0E0,0E0,0E0,0E0,0E0,0E0,0E0,0E0,0E0,0E0,0E0,0E0,0E0,0E0,0E0,0E0,0E0,0E0,0E0,0E0,0E0,0E0,0E0,0E0,0E0,0E0,0E0,0E0,0E0,0E0,0E0,0E0,0E0,0E0,0E0,0E0,0E0,0E0,0E0,0E0],"parents":[2147483647,0,0,1,1,2,2,3,3,4,4,5,5,6,6,7,7,8,8,9,9,10,10,11,11,12,12,13,13,14,14,15,15,16,16,17,17,18,18,19,19,20,20,21,21,22,22,23,23,24,24,25,25,26,26,29,29,30,30,31,31,32,32,33,33,34,34,35,35,36,36,37,37,38,38,39,39,40,40,41,41,43,43,45,45,46,46,47,47,48,48,49,49,50,50,51,51,52,52,53,53,54,54,55,55,57,57,58,58],"right_children":[2,4,6,8,10,12,14,16,18,20,22,24,26,28,30,32,34,36,38,40,42,44,46,48,50,52,54,-1,-1,56,58,60,62,64,66,68,70,72,74,76,78,80,-1,82,-1,84,86,88,90,92,94,96,98,100,102,104,-1,106,108,-1,-1,-1,-1,-1,-1,-1,-1,-1,-1,-1,-1,-1,-1,-1,-1,-1,-1,-1,-1,-1,-1,-1,-1,-1,-1,-1,-1,-1,-1,-1,-1,-1,-1,-1,-1,-1,-1,-1,-1,-1,-1,-1,-1,-1,-1,-1,-1,-1,-1],"split_conditions":[3.2712352E-1,1.8842515E-1,3.3221704E-1,5.156003E-1,8.538438E-2,5.8938414E-1,6.0975447E-2,9.920215E-2,3.745559E-1,2.8209257E-1,2.507617E-2,1.1769468E-1,2.0580554E-1,4.130553E-2,2.4223407E-1,1.6490562E-1,3.7194127E-1,1.1062576E-1,6.8783864E-2,1.0526622E-1,4.3580616E-1,1.3865115E-1,9.65872E-3,5.985735E-2,2.1177621E-1,3.613997E-1,1.4584303E-1,-1.0652969E-2,1.1819488E-1,3.684225E-2,3.5444438E-1,2.906158E-1,9.4153956E-2,9.5424056E-2,1.1391835E-3,1.5667109E-1,3.0355567E-1,3.888927E-1,3.409583E-2,8.987588E-2,1.0451162E-1,3.0994228E-1,3.733171E-2,9.2845596E-4,1.0166654E-3,5.656626E-1,1.13871254E-1,1.3699186E-1,3.580308E-2,1.38426125E-2,6.4693033E-3,1.5831888E-3,1.8700706E-2,1.5226418E-1,2.0933843E-1,7.147795E-2,3.0082453E-2,2.120962E-2,3.331869E-1,-4.8373905E-3,3.189608E-2,9.555273E-2,-1.3502023E-2,-1.1761972E-2,-5.6602128E-2,-6.4816944E-2,-1.954131E-2,7.5318636E-3,-1.3781297E-1,3.0923074E-2,1.0154094E-1,-5.7226133E-2,4.8658144E-2,-6.264472E-3,9.0926975E-2,-2.4474775E-2,4.1453145E-2,5.0889224E-2,-6.1928183E-2,-5.8867663E-2,-1.4941417E-1,-1.3977936E-1,-3.0437464E-2,-6.2511146E-2,2.9242624E-2,-2.641113E-2,8.845748E-2,1.3142784E-2,-1.2319062E-2,-2.3809578E-3,-3.6980595E-2,5.838458E-3,3.94003E-2,-1.527927E-2,3.310221E-2,1.123302E-2,2.7017621E-2,1.5404372E-1,6.615465E-2,-7.468249E-2,-4.0595876E-3,7.143023E-2,-6.527477E-2,-1.3802485E-1,-4.430978E-2,-4.8075687E-2,6.846178E-2,2.6689801E-2,-3.8038585E-2],"split_indices":[14,3,20,23,23,14,13,20,15,10,13,23,3,13,19,2,20,9,10,18,10,2,15,19,13,2,22,0,0,7,14,15,3,1,26,18,20,20,13,9,13,10,0,10,0,30,7,11,24,13,20,18,7,4,22,10,0,31,19,0,0,0,0,0,0,0,0,0,0,0,0,0,0,0,0,0,0,0,0,0,0,0,0,0,0,0,0,0,0,0,0,0,0,0,0,0,0,0,0,0,0,0,0,0,0,0,0,0,0],"split_type":[0,0,0,0,0,0,0,0,0,0,0,0,0,0,0,0,0,0,0,0,0,0,0,0,0,0,0,0,0,0,0,0,0,0,0,0,0,0,0,0,0,0,0,0,0,0,0,0,0,0,0,0,0,0,0,0,0,0,0,0,0,0,0,0,0,0,0,0,0,0,0,0,0,0,0,0,0,0,0,0,0,0,0,0,0,0,0,0,0,0,0,0,0,0,0,0,0,0,0,0,0,0,0,0,0,0,0,0,0],"sum_hessian":[1.4431667E4,8.268409E3,6.1632583E3,7.675937E3,5.9247186E2,5.9451055E3,2.181526E2,7.376325E3,2.9961182E2,4.3208926E2,1.6038258E2,4.1100874E3,1.8350184E3,7.231321E0,2.109213E2,5.99889E3,1.3774349E3,2.4908598E2,5.0525818E1,4.1184637E2,2.0242887E1,2.6920431E1,1.3346216E2,3.3282573E3,7.8182996E2,1.763204E3,7.18145E1,3.2400956E0,3.991225E0,1.8148054E1,1.9277324E2,5.970434E3,2.8456192E1,1.2388608E3,1.3857416E2,2.0877518E1,2.2820847E2,3.618998E1,1.4335837E1,3.7223938E2,3.9607018E1,1.6522312E1,3.720575E0,2.2186256E1,4.7341743E0,9.585999E1,3.760216E1,2.0006978E3,1.3275594E3,5.475138E2,2.3431616E2,1.7545308E3,8.673153E0,5.6856503E1,1.4957999E1,1.4664922E1,3.4831321E0,1.693332E1,1.7583992E2,5.8473804E3,1.2305377E2,2.2958729E1,5.4974647E0,1.1808195E3,5.8041313E1,6.817002E1,7.0404144E1,1.7651724E1,3.2257926E0,2.1207738E2,1.613109E1,2.8503904E1,7.6860757E0,6.6917133E0,7.644124E0,3.4661093E2,2.5628431E1,3.1911531E1,7.6954846E0,3.6994863E0,1.2822826E1,1.894061E1,3.2456455E0,8.8898766E1,6.9612217E0,3.0634394E1,6.96777E0,1.6473263E3,3.5337146E2,1.1971967E3,1.303629E2,1.4260905E2,4.049048E2,1.6774275E2,6.657341E1,6.207292E2,1.1338016E3,5.453405E0,3.2197483E0,3.1905836E1,2.4950666E1,9.969067E0,4.9889326E0,1.0932703E1,3.732219E0,4.72297E0,1.2210349E1,1.842569E1,1.5741423E2],"tree_param":{"num_deleted":"0","num_feature":"32","num_nodes":"109","size_leaf_vector":"1"}},{"base_weights":[4.9904024E-4,1.7885236E-2,-2.0153101E-1,5.4030664E-2,-9.42248E-2,-2.0917085E-1,8.1190145E-1,3.276575E-2,2.1591592E-1,-1.2178178E-1,2.1469535E-1,-1.6767024E-1,-4.5887497E-1,7.0492732E-3,1.27426E-1,1.5986957E-2,1.7102458E-1,1.9992927E-1,8.7053245E-1,-1.6990957E-1,-3.7149917E-2,7.6936305E-1,1.2446566E-1,-2.555601E-1,-4.5112804E-2,-3.7260413E-1,-1.1511326E0,-3.9694093E-2,5.035966E-2,1.3403809E-1,6.65892E-1,-4.0574115E-2,2.500616E-1,1.133487E0,3.7343428E-3,-1.5565914E-1,-6.245774E-1,-5.6822315E-2,5.344991E-1,4.6603292E-1,1.2406579E0,-3.407544E-1,2.574289E-1,-4.7710916E-1,-1.5814325E-1,1.574641E-2,-6.3655645E-1,1.9398747E-2,-4.821863E-1,-1.5676968E-1,2.6024876E-2,-6.902996E-4,-1.4915361E-2,2.4946646E-3,1.5947623E-2,1.7477063E-2,-3.189645E-2,7.703846E-2,-7.698526E-2,-8.373687E-3,9.8638445E-2,2.3373445E-2,9.282726E-2,1.2747864E-1,2.519667E-2,4.711518E-2,-4.4137925E-2,-2.2543885E-2,-7.730668E-3,-8.782938E-2,-1.5452829E-2,-1.1680346E-3,-2.9951632E-2,7.51262E-2,-2.1612663E-2,6.7265846E-2,-4.4233076E-2,1.5155816E-1,6.850632E-2,-8.243802E-2,2.877938E-3,9.6036844E-2,1.5569262E-2,-3.350328E-2,-1.010489E-1,-3.7551224E-3,-3.2660954E-2,1.296051E-2,-1.8292053E-2,-8.975386E-2,2.4387168E-2,-8.20545E-2,4.6259593E-2,-5.40802E-2,6.4468816E-2],"categories":[],"categories_nodes":[],"categories_segments":[],"categories_sizes":[],"default_left":[0,0,0,0,0,0,0,0,0,0,0,0,0,0,0,0,0,0,0,0,0,0,0,0,0,0,0,0,0,0,0,0,0,0,0,0,0,0,0,0,0,0,0,0,0,0,0,0,0,0,0,0,0,0,0,0,0,0,0,0,0,0,0,0,0,0,0,0,0,0,0,0,0,0,0,0,0,0,0,0,0,0,0,0,0,0,0,0,0,0,0,0,0,0,0],"id":7,"left_children":[1,3,5,7,9,11,13,15,17,19,21,23,25,-1,-1,27,29,31,33,35,37,39,41,43,45,47,49,51,53,55,57,59,61,63,65,67,69,71,73,75,77,79,81,83,85,87,89,91,93,-1,-1,-1,-1,-1,-1,-1,-1,-1,-1,-1,-1,-1,-1,-1,-1,-1,-1,-1,-1,-1,-1,-1,-1,-1,-1,-1,-1,-1,-1,-1,-1,-1,-1,-1,-1,-1,-1,-1,-1,-1,-1,-1,-1,-1,-1],"loss_changes":[5.0731304E1,5.3911377E1,8.969978E0,3.4604652E1,2.7625992E1,1.1640144E1,2.7475624E0,2.0613453E1,1.1936779E1,1.2104969E1,1.3111418E1,1.0478394E1,9.038639E0,0E0,0E0,1.5188284E1,1.7436985E1,1.3789322E1,6.1237926E0,1.2120514E1,1.2148263E1,4.5154133E0,1.4297564E1,1.2121582E1,1.481447E1,6.277321E0,1.0676199E1,1.0851179E1,1.3585432E1,1.6582691E1,1.0562824E1,8.739998E0,1.0128304E1,2.13175E0,1.7642041E0,1.002108E1,6.5738792E0,1.1434754E1,6.059864E0,4.8504977E0,8.325958E-1,9.281242E0,1.2575712E1,1.2613411E1,8.004185E0,8.437061E0,9.10532E0,1.2406791E1,7.830742E0,0E0,0E0,0E0,0E0,0E0,0E0,0E0,0E0,0E0,0E0,0E0,0E0,0E0,0E0,0E0,0E0,0E0,0E0,0E0,0E0,0E0,0E0,0E0,0E0,0E0,0E0,0E0,0E0,0E0,0E0,0E0,0E0,0E0,0E0,0E0,0E0,0E0,0E0,0E0,0E0,0E0,0E0,0E0,0E0,0E0,0E0],"parents":[2147483647,0,0,1,1,2,2,3,3,4,4,5,5,6,6,7,7,8,8,9,9,10,10,11,11,12,12,15,15,16,16,17,17,18,18,19,19,20,20,21,21,22,22,23,23,24,24,25,25,26,26,27,27,28,28,29,29,30,30,31,31,32,32,33,33,34,34,35,35,36,36,37,37,38,38,39,39,40,40,41,41,42,42,43,43,44,44,45,45,46,46,47,47,48,48],"right_children":[2,4,6,8,10,12,14,16,18,20,22,24,26,-1,-1,28,30,32,34,36,38,40,42,44,46,48,50,52,54,56,58,60,62,64,66,68,70,72,74,76,78,80,82,84,86,88,90,92,94,-1,-1,-1,-1,-1,-1,-1,-1,-1,-1,-1,-1,-1,-1,-1,-1,-1,-1,-1,-1,-1,-1,-1,-1,-1,-1,-1,-1,-1,-1,-1,-1,-1,-1,-1,-1,-1,-1,-1,-1,-1,-1,-1,-1,-1,-1],"split_conditions":[3.6431968E-1,2.9578488E-2,2.4573821E-1,7.171586E-2,5.9565836E-1,2.3453994E-1,1.8138358E-1,3.6132973E-1,1.8026422E-1,5.9322394E-2,6.151699E-1,1.268214E-1,3.4753087E-1,7.0492732E-3,1.27426E-1,1.9492757E-1,2.2025186E-1,1.2094852E-1,1.080767E-1,2.0154266E-1,2.590498E-1,4.3222588E-4,1.3775979E-1,1.0926503E-1,4.0265005E-2,3.8839063E-1,1.1435835E-1,8.90286E-2,1.6460083E-3,3.711725E-1,6.4120936E-1,1.07501276E-1,3.1175843E-1,5.2581176E-2,1.8965408E-1,1.5802954E-1,6.410767E-3,9.826482E-2,4.3222588E-4,2.4666296E-1,1.7158327E-1,6.9190875E-2,1.6652815E-1,1.08846344E-1,9.2181E-2,4.971092E-1,1.7336318E-1,1.20273195E-2,1.9032975E-1,-1.5676968E-1,2.6024876E-2,-6.902996E-4,-1.4915361E-2,2.4946646E-3,1.5947623E-2,1.7477063E-2,-3.189645E-2,7.703846E-2,-7.698526E-2,-8.373687E-3,9.8638445E-2,2.3373445E-2,9.282726E-2,1.2747864E-1,2.519667E-2,4.711518E-2,-4.4137925E-2,-2.2543885E-2,-7.730668E-3,-8.782938E-2,-1.5452829E-2,-1.1680346E-3,-2.9951632E-2,7.51262E-2,-2.1612663E-2,6.7265846E-2,-4.4233076E-2,1.5155816E-1,6.850632E-2,-8.243802E-2,2.877938E-3,9.6036844E-2,1.5569262E-2,-3.350328E-2,-1.010489E-1,-3.7551224E-3,-3.2660954E-2,1.296051E-2,-1.8292053E-2,-8.975386E-2,2.4387168E-2,-8.20545E-2,4.6259593E-2,-5.40802E-2,6.4468816E-2],"split_indices":[25,20,24,24,30,31,15,4,1,23,30,7,10,0,0,30,5,9,9,22,25,28,31,9,28,25,24,25,15,18,4,28,26,26,23,31,23,7,28,31,19,12,31,23,31,25,5,10,15,0,0,0,0,0,0,0,0,0,0,0,0,0,0,0,0,0,0,0,0,0,0,0,0,0,0,0,0,0,0,0,0,0,0,0,0,0,0,0,0,0,0,0,0,0,0],"split_type":[0,0,0,0,0,0,0,0,0,0,0,0,0,0,0,0,0,0,0,0,0,0,0,0,0,0,0,0,0,0,0,0,0,0,0,0,0,0,0,0,0,0,0,0,0,0,0,0,0,0,0,0,0,0,0,0,0,0,0,0,0,0,0,0,0,0,0,0,0,0,0,0,0,0,0,0,0,0,0,0,0,0,0,0,0,0,0,0,0,0,0,0,0,0,0],"sum_hessian":[1.444614E4,1.3302745E4,1.1433942E3,1.0060535E4,3.2422097E3,1.1357247E3,7.669466E0,8.894051E3,1.166484E3,2.977531E3,2.646788E2,9.756452E2,1.6007947E2,3.4715135E0,4.1979527E0,7.933141E3,9.6091003E2,1.1400994E3,2.638466E1,1.8967263E3,1.0808047E3,3.5823917E1,2.2885487E2,5.670758E2,4.0856943E2,1.4383687E2,1.6242605E1,3.0268386E3,4.9063022E3,8.954564E2,6.545366E1,1.9634683E2,9.4375256E2,1.9918947E1,6.4657125E0,1.8405996E3,5.612668E1,1.0458877E3,3.491704E1,2.3135008E1,1.268891E1,5.0354965E1,1.7849991E2,1.7168932E2,3.9538647E2,3.7117957E2,3.7389866E1,3.1404722E1,1.12432144E2,1.2510325E1,3.7322795E0,2.3306238E3,6.9621497E2,3.981228E3,9.250744E2,8.223484E2,7.310798E1,6.1510075E1,3.9435892E0,1.8940216E2,6.944678E0,9.230239E2,2.0728643E1,1.6684944E1,3.2340026E0,3.234891E0,3.2308216E0,9.718917E2,8.687079E2,3.5749214E1,2.0377464E1,8.830899E2,1.6279776E2,2.7195889E1,7.721153E0,1.9148802E1,3.9862075E0,7.2122474E0,5.4766617E0,2.1394608E1,2.896036E1,2.1376667E1,1.5712325E2,1.3700967E2,3.4679646E1,2.3149414E2,1.6389233E2,2.3649313E2,1.3468643E2,2.8913336E1,8.476531E0,1.0475183E1,2.0929539E1,1.0745174E2,4.9804015E0],"tree_param":{"num_deleted":"0","num_feature":"32","num_nodes":"95","size_leaf_vector":"1"}},{"base_weights":[3.2836827E-4,-5.922498E-2,7.229689E-2,-8.295221E-2,6.517128E-2,8.360541E-2,-1.7316416E-1,-7.108866E-2,-3.1027013E-1,1.566504E-2,3.6349285E-1,6.0755357E-2,1.894323E-1,-1.0710924E-1,-8.775227E-1,-8.7373435E-2,2.9690374E-2,-2.2459361E-1,-7.695614E-1,-1.4919645E-2,5.8336014E-1,-1.6365944E-3,5.314244E-1,8.022243E-2,-1.2181972E-1,1.4617407E-1,5.228427E-1,-2.3992343E-1,1.9185017E-1,-3.8814654E-3,-1.0850469E0,-8.277925E-2,-8.275627E-1,1.9173784E-2,1.0923378E0,-3.846372E-1,-1.859243E-2,-9.2770797E-1,-1.6172475E-1,8.15936E-5,-1.0422709E0,3.87685E-1,1.1797707E0,-1.5824234E-1,7.353439E-1,6.1260694E-1,-4.7312477E-1,3.4010947E-2,1.7563769E-1,-7.749344E-2,-3.7073925E-1,1.8514177E-1,-2.3946708E-1,2.4367934E-1,7.392851E-1,-1.9214095E-1,-1.1710849E0,6.9561535E-1,-8.0609195E-2,-1.4454721E-1,-3.377487E-1,-7.255222E-3,-3.159702E-2,-1.0816711E-1,-2.1170504E-2,-1.1675191E-3,3.5816442E-2,4.9337547E-2,1.5510406E-1,-3.0033756E-2,-1.0466069E-1,1.189528E-1,-8.060275E-3,-1.1632239E-1,-1.9882767E-2,9.848485E-3,-6.8125516E-2,-4.7801575E-3,2.8545666E-2,-2.338473E-2,-1.3559853E-1,1.7536312E-2,8.705789E-2,1.3640133E-1,4.4293743E-2,-3.129975E-2,6.5237135E-2,1.2063008E-1,2.240671E-2,7.251624E-2,-1.6118132E-3,-7.593403E-2,6.7060726E-4,8.5869115E-3,-5.553655E-3,1.633487E-2,7.2914004E-2,-1.122355E-2,3.2761566E-2,-4.5252122E-2,4.0981684E-2,1.7004145E-2,9.876769E-2,-1.3007572E-1,-1.16172675E-2,9.46742E-2,-6.8444805E-3,8.280661E-2,-3.9976917E-2,-8.964194E-3,-5.8568705E-2,-5.4236542E-2,-1.4661647E-1,9.144103E-2,-7.694759E-2,-2.9293764E-2,4.836161E-2,4.1417446E-2,-9.955248E-2],"categories":[],"categories_nodes":[],"categories_segments":[],"categories_sizes":[],"default_left":[0,0,0,0,0,0,0,0,0,0,0,0,0,0,0,0,0,0,0,0,0,0,0,0,0,0,0,0,0,0,0,0,0,0,0,0,0,0,0,0,0,0,0,0,0,0,0,0,0,0,0,0,0,0,0,0,0,0,0,0,0,0,0,0,0,0,0,0,0,0,0,0,0,0,0,0,0,0,0,0,0,0,0,0,0,0,0,0,0,0,0,0,0,0,0,0,0,0,0,0,0,0,0,0,0,0,0,0,0,0,0,0,0,0,0,0,0,0,0],"id":8,"left_children":[1,3,5,7,9,11,13,15,17,19,21,23,25,27,29,31,33,35,37,39,41,43,45,47,49,51,53,55,57,-1,59,61,63,65,67,69,71,73,75,77,79,81,83,85,87,89,91,93,95,97,99,101,103,105,107,109,111,113,115,-1,117,-1,-1,-1,-1,-1,-1,-1,-1,-1,-1,-1,-1,-1,-1,-1,-1,-1,-1,-1,-1,-1,-1,-1,-1,-1,-1,-1,-1,-1,-1,-1,-1,-1,-1,-1,-1,-1,-1,-1,-1,-1,-1,-1,-1,-1,-1,-1,-1,-1,-1,-1,-1,-1,-1,-1,-1,-1,-1],"loss_changes":[6.1875237E1,2.3321152E1,1.8152557E1,1.783213E1,1.8641256E1,1.5078663E1,1.3200683E1,1.0359653E1,1.2649168E1,1.8928858E1,1.1074759E1,1.8284843E1,1.58476715E1,1.0551067E1,4.094507E0,1.8308865E1,9.672111E0,9.129141E0,4.64624E0,1.600426E1,5.8898506E0,6.687238E0,1.0359528E1,2.0469833E1,5.3929415E0,1.4811838E1,7.3758087E0,7.815628E0,1.1327095E1,0E0,4.568821E0,1.2813396E1,4.845974E0,9.134924E0,1.3618469E0,8.274149E0,9.201192E0,6.524994E0,1.7309983E0,1.3944587E1,3.3138866E0,4.2108607E0,1.0005932E0,6.229566E0,2.025991E0,8.193352E0,1.4113939E0,1.4560075E1,1.0102314E1,5.9567566E0,4.931655E0,1.0545872E1,1.1538591E1,1.2664547E1,7.5196075E0,6.983833E0,6.1278725E-1,9.981807E0,6.564307E0,0E0,4.288544E0,0E0,0E0,0E0,0E0,0E0,0E0,0E0,0E0,0E0,0E0,0E0,0E0,0E0,0E0,0E0,0E0,0E0,0E0,0E0,0E0,0E0,0E0,0E0,0E0,0E0,0E0,0E0,0E0,0E0,0E0,0E0,0E0,0E0,0E0,0E0,0E0,0E0,0E0,0E0,0E0,0E0,0E0,0E0,0E0,0E0,0E0,0E0,0E0,0E0,0E0,0E0,0E0,0E0,0E0,0E0,0E0,0E0,0E0],"parents":[2147483647,0,0,1,1,2,2,3,3,4,4,5,5,6,6,7,7,8,8,9,9,10,10,11,11,12,12,13,13,14,14,15,15,16,16,17,17,18,18,19,19,20,20,21,21,22,22,23,23,24,24,25,25,26,26,27,27,28,28,30,30,31,31,32,32,33,33,34,34,35,35,36,36,37,37,38,38,39,39,40,40,41,41,42,42,43,43,44,44,45,45,46,46,47,47,48,48,49,49,50,50,51,51,52,52,53,53,54,54,55,55,56,56,57,57,58,58,60,60],"right_children":[2,4,6,8,10,12,14,16,18,20,22,24,26,28,30,32,34,36,38,40,42,44,46,48,50,52,54,56,58,-1,60,62,64,66,68,70,72,74,76,78,80,82,84,86,88,90,92,94,96,98,100,102,104,106,108,110,112,114,116,-1,118,-1,-1,-1,-1,-1,-1,-1,-1,-1,-1,-1,-1,-1,-1,-1,-1,-1,-1,-1,-1,-1,-1,-1,-1,-1,-1,-1,-1,-1,-1,-1,-1,-1,-1,-1,-1,-1,-1,-1,-1,-1,-1,-1,-1,-1,-1,-1,-1,-1,-1,-1,-1,-1,-1,-1,-1,-1,-1],"split_conditions":[3.1152084E-1,2.5450054E-1,3.9759657E-1,4.5973477E-1,8.180824E-2,9.4288655E-2,3.0786777E-1,3.817882E-1,2.2651392E-1,1.2723802E-2,1.2757495E-1,2.6485201E-2,1.7291671E-3,3.4715258E-2,1.06763884E-1,3.263416E-1,3.3399916E-1,4.4802815E-1,2.6293539E-2,4.991365E-1,2.2216235E-1,2.4526158E-1,2.945136E-1,5.8938414E-1,3.5003382E-1,7.454632E-4,1.2286501E-1,3.072485E-1,5.2795082E-2,-3.8814654E-3,3.664149E-1,2.0223087E-1,1.0990422E-2,1.5010095E-1,3.823651E-2,1.4194551E-1,1.9251179E-2,2.6152167E-2,1.0672608E-1,3.230209E-2,9.2181E-2,1.7256811E-1,6.4844444E-2,2.461728E-1,1.6213469E-1,4.5766822E-1,3.9511812E-1,1.21897385E-1,2.2748008E-2,2.1947189E-1,1.7309827E-1,7.5988665E-2,2.3207963E-3,1.2820494E-1,6.773228E-1,1.2595697E-1,7.455588E-1,5.5089027E-1,2.4013494E-1,-1.4454721E-1,1.1484493E-1,-7.255222E-3,-3.159702E-2,-1.0816711E-1,-2.1170504E-2,-1.1675191E-3,3.5816442E-2,4.9337547E-2,1.5510406E-1,-3.0033756E-2,-1.0466069E-1,1.189528E-1,-8.060275E-3,-1.1632239E-1,-1.9882767E-2,9.848485E-3,-6.8125516E-2,-4.7801575E-3,2.8545666E-2,-2.338473E-2,-1.3559853E-1,1.7536312E-2,8.705789E-2,1.3640133E-1,4.4293743E-2,-3.129975E-2,6.5237135E-2,1.2063008E-1,2.240671E-2,7.251624E-2,-1.6118132E-3,-7.593403E-2,6.7060726E-4,8.5869115E-3,-5.553655E-3,1.633487E-2,7.2914004E-2,-1.122355E-2,3.2761566E-2,-4.5252122E-2,4.0981684E-2,1.7004145E-2,9.876769E-2,-1.3007572E-1,-1.16172675E-2,9.46742E-2,-6.8444805E-3,8.280661E-2,-3.9976917E-2,-8.964194E-3,-5.8568705E-2,-5.4236542E-2,-1.4661647E-1,9.144103E-2,-7.694759E-2,-2.9293764E-2,4.836161E-2,4.1417446E-2,-9.955248E-2],"split_indices":[14,23,25,25,12,23,11,30,31,8,30,20,2,7,18,10,3,30,23,20,18,15,22,14,30,29,31,22,31,0,11,3,20,16,13,11,3,12,14,6,31,14,25,25,13,20,30,25,16,25,12,3,22,23,14,31,13,14,13,0,10,0,0,0,0,0,0,0,0,0,0,0,0,0,0,0,0,0,0,0,0,0,0,0,0,0,0,0,0,0,0,0,0,0,0,0,0,0,0,0,0,0,0,0,0,0,0,0,0,0,0,0,0,0,0,0,0,0,0],"split_type":[0,0,0,0,0,0,0,0,0,0,0,0,0,0,0,0,0,0,0,0,0,0,0,0,0,0,0,0,0,0,0,0,0,0,0,0,0,0,0,0,0,0,0,0,0,0,0,0,0,0,0,0,0,0,0,0,0,0,0,0,0,0,0,0,0,0,0,0,0,0,0,0,0,0,0,0,0,0,0,0,0,0,0,0,0,0,0,0,0,0,0,0,0,0,0,0,0,0,0,0,0,0,0,0,0,0,0,0,0,0,0,0,0,0,0,0,0,0,0],"sum_hessian":[1.4434401E4,7.8978135E3,6.5365874E3,6.633654E3,1.2641599E3,6.249726E3,2.868614E2,6.306286E3,3.2736765E2,1.0854226E3,1.7873734E2,5.1419907E3,1.1077352E3,2.634491E2,2.3412277E1,5.429986E3,8.7630023E2,2.773393E2,5.0028347E1,1.0306914E3,5.4731136E1,5.6432434E1,1.2230489E2,4.6475537E3,4.944372E2,9.8205695E2,1.2567826E2,1.827801E2,8.066899E1,4.9749503E0,1.8437328E1,5.3977305E3,3.2255493E1,8.688141E2,7.4861526E0,1.5531868E2,1.2202064E2,3.915124E1,1.0877107E1,1.0167476E3,1.3943823E1,4.2579136E1,1.2152E1,4.7301914E1,9.130518E0,1.1361299E2,8.691908E0,3.1327202E3,1.5148335E3,4.2115344E2,7.3283745E1,8.926382E2,8.9418755E1,5.601675E1,6.9661514E1,1.7510818E2,7.6719246E0,2.7898973E1,5.277002E1,1.1717734E1,6.7195935E0,5.172615E3,2.2511497E2,2.2183598E1,1.0071896E1,7.969594E2,7.185468E1,4.2414155E0,3.2447374E0,1.3919714E2,1.6121529E1,4.990841E0,1.1702979E2,2.9036015E1,1.0115225E1,7.659006E0,3.2181005E0,8.710722E2,1.456754E2,4.4753313E0,9.468492E0,3.0665962E1,1.1913173E1,8.931751E0,3.2202494E0,4.0338154E1,6.9637623E0,3.9432554E0,5.187263E0,9.636688E1,1.7246101E1,5.2100453E0,3.4818623E0,1.9845804E3,1.1481398E3,1.4833751E3,3.1458433E1,3.8878143E2,3.237201E1,6.683006E1,6.45368E0,8.774645E2,1.5173699E1,8.228514E0,8.119025E1,1.6696005E1,3.9320747E1,6.495923E1,4.7022843E0,1.4010083E2,3.500736E1,3.4653373E0,4.2065873E0,2.466035E1,3.2386234E0,3.8819553E1,1.3950469E1,3.237279E0,3.4823143E0],"tree_param":{"num_deleted":"0","num_feature":"32","num_nodes":"119","size_leaf_vector":"1"}},{"base_weights":[-3.1461136E-4,-5.58618E-2,6.6997565E-2,-6.516552E-2,1.9761424E-1,6.470866E-2,1.0860463E0,-4.443655E-2,-1.4600717E-1,2.5748868E-2,3.9178297E-1,5.308174E-2,2.6635075E-1,2.0750204E-2,1.3105255E-1,-5.40769E-2,3.9792094E-1,-1.4116043E-1,-1.2342954E-1,-3.6082007E-2,1.1587142E-1,4.3655893E-1,-8.196272E-2,6.242933E-2,-1.6270992E-1,2.0624915E-1,7.3511183E-1,-4.284101E-2,-1.7883562E-1,5.648294E-1,-2.3335834E-1,-1.4763258E-1,7.3521703E-1,-2.1781321E-1,3.8909116E-1,-7.860715E-2,4.8558044E-1,1.1101959E-2,9.974907E-2,4.6319592E-1,-2.272952E-1,2.8904873E-1,-2.0722292E-1,8.331248E-1,-2.1455405E-2,-5.2331095E-3,1.1436111E-2,-2.9132885E-3,-3.597506E-2,3.5492446E-2,1.056985E-1,-4.264046E-2,5.2310694E-2,-1.5309349E-2,8.203461E-2,1.5355867E-2,1.3822775E-1,-1.616503E-2,-1.3654603E-1,6.167936E-2,-2.5112912E-2,5.305585E-2,-1.3784284E-2,-1.0354085E-3,3.208401E-2,6.8410854E-3,1.9587148E-2,-1.1605944E-3,1.046643E-1,-2.8455371E-2,3.406242E-2,4.914168E-2,1.4390868E-2,-7.859857E-2,1.3252183E-2,1.7259061E-2,9.839683E-2],"categories":[],"categories_nodes":[],"categories_segments":[],"categories_sizes":[],"default_left":[0,0,0,0,0,0,0,0,0,0,0,0,0,0,0,0,0,0,0,0,0,0,0,0,0,0,0,0,0,0,0,0,0,0,0,0,0,0,0,0,0,0,0,0,0,0,0,0,0,0,0,0,0,0,0,0,0,0,0,0,0,0,0,0,0,0,0,0,0,0,0,0,0,0,0,0,0],"id":9,"left_children":[1,3,5,7,9,11,13,15,17,19,21,23,25,-1,-1,27,29,31,-1,33,-1,35,-1,37,39,41,43,45,47,49,51,53,55,57,59,-1,61,63,65,67,69,71,73,75,-1,-1,-1,-1,-1,-1,-1,-1,-1,-1,-1,-1,-1,-1,-1,-1,-1,-1,-1,-1,-1,-1,-1,-1,-1,-1,-1,-1,-1,-1,-1,-1,-1],"loss_changes":[5.3985195E1,1.8657043E1,1.5039425E1,1.2764751E1,9.2911215E0,1.5225241E1,2.429327E0,2.5903465E1,7.896908E0,1.0652102E1,7.4313736E0,1.2426371E1,9.738754E0,0E0,0E0,8.308962E0,1.3811514E1,8.844736E0,0E0,1.111613E1,0E0,7.9737415E0,0E0,1.13004055E1,1.04143715E1,1.0876189E1,3.9354553E0,8.144307E0,1.3233313E1,1.0108734E1,4.253432E0,8.200157E0,3.9327326E0,6.135225E0,6.4616284E0,0E0,3.5604267E0,1.6572498E1,1.0256889E1,6.789798E0,7.652232E0,7.609516E0,1.0601494E1,3.3295822E0,0E0,0E0,0E0,0E0,0E0,0E0,0E0,0E0,0E0,0E0,0E0,0E0,0E0,0E0,0E0,0E0,0E0,0E0,0E0,0E0,0E0,0E0,0E0,0E0,0E0,0E0,0E0,0E0,0E0,0E0,0E0,0E0,0E0],"parents":[2147483647,0,0,1,1,2,2,3,3,4,4,5,5,6,6,7,7,8,8,9,9,10,10,11,11,12,12,15,15,16,16,17,17,19,19,21,21,23,23,24,24,25,25,26,26,27,27,28,28,29,29,30,30,31,31,32,32,33,33,34,34,36,36,37,37,38,38,39,39,40,40,41,41,42,42,43,43],"right_children":[2,4,6,8,10,12,14,16,18,20,22,24,26,-1,-1,28,30,32,-1,34,-1,36,-1,38,40,42,44,46,48,50,52,54,56,58,60,-1,62,64,66,68,70,72,74,76,-1,-1,-1,-1,-1,-1,-1,-1,-1,-1,-1,-1,-1,-1,-1,-1,-1,-1,-1,-1,-1,-1,-1,-1,-1,-1,-1,-1,-1,-1,-1,-1,-1],"split_conditions":[3.1152084E-1,5.156003E-1,3.613997E-1,8.914992E-2,4.8064217E-2,3.9510584E-1,5.287425E-1,2.8026113E-1,1.4926726E-1,2.2220188E-1,3.6517926E-2,3.1091392E-1,3.1888238E-1,2.0750204E-2,1.3105255E-1,1.9657435E-1,2.5663716E-1,1.06111206E-1,-1.2342954E-1,2.544934E-1,1.1587142E-1,7.7041946E-3,-8.196272E-2,9.327114E-2,8.362726E-2,3.0552821E-2,3.9954666E-2,9.4939455E-2,6.62456E-2,4.2066213E-2,2.2683198E-2,6.424056E-1,2.29517E-4,4.494884E-1,3.2226855E-1,-7.860715E-2,1.1051806E-2,2.7061304E-1,9.4288655E-2,4.3222588E-4,1.4698261E-1,3.656401E-1,4.659702E-1,4.020022E-1,-2.1455405E-2,-5.2331095E-3,1.1436111E-2,-2.9132885E-3,-3.597506E-2,3.5492446E-2,1.056985E-1,-4.264046E-2,5.2310694E-2,-1.5309349E-2,8.203461E-2,1.5355867E-2,1.3822775E-1,-1.616503E-2,-1.3654603E-1,6.167936E-2,-2.5112912E-2,5.305585E-2,-1.3784284E-2,-1.0354085E-3,3.208401E-2,6.8410854E-3,1.9587148E-2,-1.1605944E-3,1.046643E-1,-2.8455371E-2,3.406242E-2,4.914168E-2,1.4390868E-2,-7.859857E-2,1.3252183E-2,1.7259061E-2,9.839683E-2],"split_indices":[14,23,2,20,13,12,14,15,29,7,17,20,19,0,0,10,14,29,0,19,0,19,0,31,13,17,22,12,22,19,7,13,2,15,15,0,7,12,23,28,28,0,12,10,0,0,0,0,0,0,0,0,0,0,0,0,0,0,0,0,0,0,0,0,0,0,0,0,0,0,0,0,0,0,0,0,0],"split_type":[0,0,0,0,0,0,0,0,0,0,0,0,0,0,0,0,0,0,0,0,0,0,0,0,0,0,0,0,0,0,0,0,0,0,0,0,0,0,0,0,0,0,0,0,0,0,0,0,0,0,0,0,0,0,0,0,0,0,0,0,0,0,0,0,0,0,0,0,0,0,0,0,0,0,0,0,0],"sum_hessian":[1.4436694E4,7.910482E3,6.5262124E3,7.6315083E3,2.7897354E2,6.5127456E3,1.346679E1,6.076255E3,1.555253E3,1.4886005E2,1.301135E2,6.159349E3,3.5339618E2,3.2229562E0,1.0243834E1,5.9477393E3,1.2851595E2,1.5495736E3,5.6795006E0,1.4199086E2,6.8691745E0,1.2617211E2,3.9413788E0,5.9047437E3,2.5460564E2,3.147006E2,3.8695602E1,5.458304E3,4.894351E2,1.018506E2,2.6665346E1,1.5391523E3,1.0421202E1,9.9979614E1,4.201125E1,4.2056313E0,1.2196648E2,2.4875251E3,3.4172183E3,2.3092503E1,2.3151314E2,2.6264713E2,5.2053463E1,3.528222E1,3.413383E0,5.148782E3,3.095219E2,2.687581E2,2.2067699E2,7.2747894E1,2.9102709E1,2.1696915E1,4.9684324E0,1.5314578E3,7.6946406E0,6.2209244E0,4.200277E0,9.648583E1,3.493782E0,3.1131668E1,1.0879581E1,1.1404767E2,7.9188104E0,2.3269758E3,1.6054951E2,2.579116E3,8.3810223E2,1.3177518E1,9.914985E0,2.1092262E2,2.0590508E1,1.0841285E2,1.5423427E2,1.8876982E1,3.317648E1,7.0811973E0,2.8201021E1],"tree_param":{"num_deleted":"0","num_feature":"32","num_nodes":"77","size_leaf_vector":"1"}},{"base_weights":[-2.0384067E-3,-5.4451548E-2,6.136145E-2,-3.2800227E-2,-1.7315733E-1,7.434673E-2,-1.2182953E-1,-4.7454E-2,9.133096E-2,-1.6066757E-1,-9.305125E-1,8.3451785E-2,-1.4301421E-1,-1.444821E-1,7.9452264E-1,-7.08392E-2,6.1193343E-2,3.9609134E-2,3.574239E-1,-1.6942933E-1,7.542083E-1,-1.3686611E-1,-2.8705436E-1,8.138559E-2,1.0495155E0,-1.7765234E-1,7.8133696E-1,-1.1637609E-1,-8.370419E-1,1.183809E-1,5.2045737E-3,-8.4578864E-2,6.804418E-2,4.6003304E-2,8.845514E-1,2.1022437E-2,1.086099E0,-6.0642444E-2,7.1721524E-1,-1.4912574E-1,-6.3563824E-1,1.3387983E-1,1.732335E-2,-8.753656E-2,2.5687313E-2,5.554022E-2,1.4469336E-1,4.8618283E-2,1.3978355E-1,-1.0682706E-1,-6.503003E-1,1.485083E-1,-1.4948529E-2,-1.5497105E-1,4.1716054E-1,-2.0760472E-1,-1.3734378E-1,-8.005393E-3,-7.159954E-2,6.2321093E-2,4.0814513E-3,7.4372636E-3,-4.3670304E-2,1.4140366E-1,4.6918843E-2,6.4548976E-3,-3.0638684E-2,1.4277329E-1,2.4532761E-2,1.135227E-2,-7.3685184E-2,9.544467E-2,4.5583013E-2,-1.9372618E-2,4.574767E-3,-7.907881E-2,2.5772749E-2,9.612101E-3,-4.2762402E-3,1.032506E-2,2.6250347E-2,-2.1148514E-2,2.9527312E-2,-8.1350274E-2,5.2704155E-2,-3.0451158E-2,-3.435656E-4,-4.1720215E-2,6.832364E-2,2.3586057E-2,-7.552292E-2],"categories":[],"categories_nodes":[],"categories_segments":[],"categories_sizes":[],"default_left":[0,0,0,0,0,0,0,0,0,0,0,0,0,0,0,0,0,0,0,0,0,0,0,0,0,0,0,0,0,0,0,0,0,0,0,0,0,0,0,0,0,0,0,0,0,0,0,0,0,0,0,0,0,0,0,0,0,0,0,0,0,0,0,0,0,0,0,0,0,0,0,0,0,0,0,0,0,0,0,0,0,0,0,0,0,0,0,0,0,0,0],"id":10,"left_children":[1,3,5,7,9,11,13,15,17,19,21,23,25,27,29,31,33,35,37,39,41,-1,43,45,47,49,51,53,55,-1,-1,57,59,61,63,65,67,69,71,73,75,-1,-1,-1,-1,77,79,-1,-1,81,83,-1,-1,85,87,89,-1,-1,-1,-1,-1,-1,-1,-1,-1,-1,-1,-1,-1,-1,-1,-1,-1,-1,-1,-1,-1,-1,-1,-1,-1,-1,-1,-1,-1,-1,-1,-1,-1,-1,-1],"loss_changes":[4.7843063E1,2.0233305E1,1.5502409E1,1.2130171E1,1.1234562E1,1.2048729E1,8.998825E0,1.5163146E1,9.631577E0,9.661606E0,4.903578E0,1.1461426E1,7.9091787E0,8.015102E0,2.834557E0,9.377628E0,1.3079035E1,1.1355078E1,1.7269997E1,1.1055222E1,3.4977856E0,0E0,3.2325993E0,9.511318E0,1.5414762E0,7.7771053E0,6.1953506E0,8.409531E0,5.0077353E0,0E0,0E0,1.2633041E1,6.5892324E0,1.4217266E1,3.3187428E0,8.281931E0,2.41047E0,6.4543543E0,3.238964E0,9.916561E0,7.0477676E0,0E0,0E0,0E0,0E0,1.653569E1,8.179775E0,0E0,0E0,8.773624E0,6.310301E0,0E0,0E0,8.579351E0,6.421096E0,2.340958E0,0E0,0E0,0E0,0E0,0E0,0E0,0E0,0E0,0E0,0E0,0E0,0E0,0E0,0E0,0E0,0E0,0E0,0E0,0E0,0E0,0E0,0E0,0E0,0E0,0E0,0E0,0E0,0E0,0E0,0E0,0E0,0E0,0E0,0E0,0E0],"parents":[2147483647,0,0,1,1,2,2,3,3,4,4,5,5,6,6,7,7,8,8,9,9,10,10,11,11,12,12,13,13,14,14,15,15,16,16,17,17,18,18,19,19,20,20,22,22,23,23,24,24,25,25,26,26,27,27,28,28,31,31,32,32,33,33,34,34,35,35,36,36,37,37,38,38,39,39,40,40,45,45,46,46,49,49,50,50,53,53,54,54,55,55],"right_children":[2,4,6,8,10,12,14,16,18,20,22,24,26,28,30,32,34,36,38,40,42,-1,44,46,48,50,52,54,56,-1,-1,58,60,62,64,66,68,70,72,74,76,-1,-1,-1,-1,78,80,-1,-1,82,84,-1,-1,86,88,90,-1,-1,-1,-1,-1,-1,-1,-1,-1,-1,-1,-1,-1,-1,-1,-1,-1,-1,-1,-1,-1,-1,-1,-1,-1,-1,-1,-1,-1,-1,-1,-1,-1,-1,-1],"split_conditions":[3.1152084E-1,9.119809E-2,1.5599E-1,3.5855776E-1,2.5906706E-1,3.1091392E-1,3.3938542E-1,2.0753203E-1,5.367402E-3,1.7468032E-1,1.1923835E-2,3.613997E-1,1.4900805E-1,2.3285319E-1,1.6401805E-1,4.778371E-1,1.09180175E-1,2.5065303E-1,2.2437619E-1,2.969447E-1,2.0083472E-1,-1.3686611E-1,1.21194124E-1,5.9408075E-1,1.2254864E-3,3.7678757E-1,4.2012987E-1,1.7323811E-1,6.491935E-3,1.183809E-1,5.2045737E-3,3.3786413E-1,4.8495996E-1,1.4537375E-2,2.6244915E-1,6.6424505E-4,1.0962854E-1,1.16050005E-1,7.931604E-2,5.8011286E-2,4.3084487E-1,1.3387983E-1,1.732335E-2,-8.753656E-2,2.5687313E-2,1.2679176E-1,2.3625417E-1,4.8618283E-2,1.3978355E-1,4.0089652E-1,4.2590305E-1,1.485083E-1,-1.4948529E-2,6.9467453E-3,1.6522978E-1,2.1869197E-2,-1.3734378E-1,-8.005393E-3,-7.159954E-2,6.2321093E-2,4.0814513E-3,7.4372636E-3,-4.3670304E-2,1.4140366E-1,4.6918843E-2,6.4548976E-3,-3.0638684E-2,1.4277329E-1,2.4532761E-2,1.135227E-2,-7.3685184E-2,9.544467E-2,4.5583013E-2,-1.9372618E-2,4.574767E-3,-7.907881E-2,2.5772749E-2,9.612101E-3,-4.2762402E-3,1.032506E-2,2.6250347E-2,-2.1148514E-2,2.9527312E-2,-8.1350274E-2,5.2704155E-2,-3.0451158E-2,-3.435656E-4,-4.1720215E-2,6.832364E-2,2.3586057E-2,-7.552292E-2],"split_indices":[14,3,3,31,18,20,7,18,22,12,22,2,1,31,18,30,2,5,23,10,12,0,3,14,5,9,9,18,0,0,0,10,30,20,18,20,1,9,9,0,10,0,0,0,0,25,4,0,0,30,5,0,0,1,3,23,0,0,0,0,0,0,0,0,0,0,0,0,0,0,0,0,0,0,0,0,0,0,0,0,0,0,0,0,0,0,0,0,0,0,0],"split_type":[0,0,0,0,0,0,0,0,0,0,0,0,0,0,0,0,0,0,0,0,0,0,0,0,0,0,0,0,0,0,0,0,0,0,0,0,0,0,0,0,0,0,0,0,0,0,0,0,0,0,0,0,0,0,0,0,0,0,0,0,0,0,0,0,0,0,0,0,0,0,0,0,0,0,0,0,0,0,0,0,0,0,0,0,0,0,0,0,0,0,0],"sum_hessian":[1.4395817E4,7.8816865E3,6.5141313E3,6.6676587E3,1.2140277E3,6.084013E3,4.3011807E2,5.964919E3,7.027395E2,1.1956539E3,1.83737E1,5.8404385E3,2.4357463E2,4.206704E2,9.447674E0,4.9094746E3,1.0554445E3,5.8965076E2,1.1308873E2,1.1852272E3,1.042682E1,1.01677475E1,8.205953E0,5.829159E3,1.1279489E1,2.3565976E2,7.914866E0,4.0552548E2,1.5144929E1,5.719702E0,3.727972E0,4.4685176E3,4.4095728E2,1.0374813E3,1.7963047E1,5.804569E2,9.193843E0,5.2564236E1,6.0524498E1,1.1372345E3,4.799268E1,4.4612675E0,5.965553E0,3.7377324E0,4.46822E0,4.1417485E3,1.6874104E3,5.334678E0,5.9448104E0,2.0619888E2,2.946087E1,4.2292957E0,3.68557E0,3.7900592E2,2.6519552E1,7.692077E0,7.452852E0,4.4379985E3,3.0519018E1,1.9421717E1,4.2153555E2,9.808864E2,5.6594975E1,6.733899E0,1.1229148E1,5.133229E2,6.713404E1,5.9564676E0,3.2373748E0,4.2342655E1,1.022158E1,3.0137667E1,3.0386831E1,9.258544E2,2.113801E2,4.1084362E1,6.9083157E0,2.9322937E3,1.2094551E3,1.2503075E3,4.3710287E2,1.6418721E2,4.2011677E1,2.6220213E1,3.240658E0,1.8991832E2,1.890876E2,6.183977E0,2.0335575E1,4.463908E0,3.228169E0],"tree_param":{"num_deleted":"0","num_feature":"32","num_nodes":"91","size_leaf_vector":"1"}},{"base_weights":[1.7346634E-3,-2.5210349E-2,1.0550643E-1,-1.0899329E-1,-3.6670621E-3,1.2137623E-1,-1.0862796E-1,-1.1899664E-1,3.804881E-1,-2.6319824E-2,1.2452171E-1,1.0938059E-1,5.50297E-1,-3.3594558E-1,1.2814587E-1,-1.1314564E-1,-7.362776E-1,5.12643E-1,-1.0408869E-1,1.9686423E-2,-7.842327E-2,1.1044441E-1,8.2199395E-1,7.927581E-2,2.267766E-1,8.011699E-1,-1.21615805E-1,-2.0351931E-2,-5.9894246E-1,2.1402995E-1,-1.05189286E-1,-8.272487E-2,-2.2129107E-1,-4.6609662E-2,-1.0982736E0,6.2945765E-1,-2.373959E-2,-3.5687473E-2,1.1540462E-1,-7.4218996E-2,-9.375981E-1,1.3439661E-1,-1.6233703E-1,1.0611479E0,-6.7934394E-2,1.7822869E-3,1.3617717E-1,1.6592519E-1,4.9610686E-1,9.059263E-1,8.984529E-2,-6.6095847E-1,3.252704E-1,-6.3414365E-1,2.933636E-1,-1.4590481E-1,-4.6768737E-1,8.447265E-1,-6.306357E-2,-1.0179594E-2,1.1787022E-2,-2.4757229E-2,2.558264E-2,-8.8869095E-2,6.253255E-2,-1.400775E-1,-2.0831697E-2,1.1131364E-1,4.3338683E-2,-3.131844E-3,-9.479926E-2,9.432487E-3,4.090501E-2,-5.3655207E-3,-1.9754658E-2,1.6361814E-2,-1.3391827E-1,9.2838295E-3,2.827374E-2,-3.0167414E-2,2.1731898E-2,1.22395456E-1,7.3834965E-3,-2.4666253E-3,4.0158194E-2,1.6840558E-2,-4.534866E-3,2.0623995E-2,-1.9582218E-2,6.934057E-2,2.0179031E-3,1.0396724E-1,3.060216E-2,-4.0686708E-2,5.1388856E-2,-7.2277673E-3,-1.278476E-1,7.829877E-2,-3.200848E-2,-1.0675074E-1,8.0792326E-4,8.022147E-2,-8.295243E-3,4.2952184E-2,-6.1036754E-2,1.0014321E-1,-0E0,-4.159331E-2,2.2405585E-2],"categories":[],"categories_nodes":[],"categories_segments":[],"categories_sizes":[],"default_left":[0,0,0,0,0,0,0,0,0,0,0,0,0,0,0,0,0,0,0,0,0,0,0,0,0,0,0,0,0,0,0,0,0,0,0,0,0,0,0,0,0,0,0,0,0,0,0,0,0,0,0,0,0,0,0,0,0,0,0,0,0,0,0,0,0,0,0,0,0,0,0,0,0,0,0,0,0,0,0,0,0,0,0,0,0,0,0,0,0,0,0,0,0,0,0,0,0,0,0,0,0,0,0,0,0,0,0,0,0],"id":11,"left_children":[1,3,5,7,9,11,13,15,17,19,21,23,25,27,29,31,33,35,-1,37,39,41,43,45,47,49,51,53,55,57,-1,59,61,63,65,67,-1,69,71,73,75,77,79,81,-1,83,85,87,89,91,93,95,97,99,101,-1,103,105,107,-1,-1,-1,-1,-1,-1,-1,-1,-1,-1,-1,-1,-1,-1,-1,-1,-1,-1,-1,-1,-1,-1,-1,-1,-1,-1,-1,-1,-1,-1,-1,-1,-1,-1,-1,-1,-1,-1,-1,-1,-1,-1,-1,-1,-1,-1,-1,-1,-1,-1],"loss_changes":[4.014954E1,2.0557865E1,1.0073418E1,1.1427679E1,2.6322926E1,1.4057526E1,1.1061356E1,8.081837E0,9.253162E0,1.848168E1,1.3180742E1,9.434223E0,1.2727533E1,8.619095E0,1.0335882E1,7.4000607E0,5.1036806E0,3.9966383E0,0E0,2.1704842E1,1.2888168E1,8.745098E0,1.0321962E1,9.412352E0,8.806782E0,3.8804245E0,5.3149805E0,9.6199465E0,5.550972E0,1.667726E1,0E0,6.7793484E0,6.2788677E0,5.33752E0,3.2360134E0,2.9661913E0,0E0,1.0207369E1,9.201323E0,9.091187E0,8.032712E0,7.510414E0,5.7830067E0,3.5447178E0,0E0,9.636828E0,7.226879E0,6.5679417E0,9.295029E0,3.3403587E0,1.9530462E0,3.3917584E0,3.860577E0,4.8279705E0,6.4347525E0,0E0,6.803528E0,3.9184875E0,6.859776E0,0E0,0E0,0E0,0E0,0E0,0E0,0E0,0E0,0E0,0E0,0E0,0E0,0E0,0E0,0E0,0E0,0E0,0E0,0E0,0E0,0E0,0E0,0E0,0E0,0E0,0E0,0E0,0E0,0E0,0E0,0E0,0E0,0E0,0E0,0E0,0E0,0E0,0E0,0E0,0E0,0E0,0E0,0E0,0E0,0E0,0E0,0E0,0E0,0E0,0E0],"parents":[2147483647,0,0,1,1,2,2,3,3,4,4,5,5,6,6,7,7,8,8,9,9,10,10,11,11,12,12,13,13,14,14,15,15,16,16,17,17,19,19,20,20,21,21,22,22,23,23,24,24,25,25,26,26,27,27,28,28,29,29,31,31,32,32,33,33,34,34,35,35,37,37,38,38,39,39,40,40,41,41,42,42,43,43,45,45,46,46,47,47,48,48,49,49,50,50,51,51,52,52,53,53,54,54,56,56,57,57,58,58],"right_children":[2,4,6,8,10,12,14,16,18,20,22,24,26,28,30,32,34,36,-1,38,40,42,44,46,48,50,52,54,56,58,-1,60,62,64,66,68,-1,70,72,74,76,78,80,82,-1,84,86,88,90,92,94,96,98,100,102,-1,104,106,108,-1,-1,-1,-1,-1,-1,-1,-1,-1,-1,-1,-1,-1,-1,-1,-1,-1,-1,-1,-1,-1,-1,-1,-1,-1,-1,-1,-1,-1,-1,-1,-1,-1,-1,-1,-1,-1,-1,-1,-1,-1,-1,-1,-1,-1,-1,-1,-1,-1,-1],"split_conditions":[4.9822348E-1,6.801449E-2,3.2555595E-1,5.232676E-1,2.9921895E-1,2.2748008E-2,4.0927094E-1,2.5547785E-1,9.3491465E-2,5.133063E-2,7.880877E-2,3.011133E-1,1.4937755E-1,2.3401639E-1,3.1614304E-1,3.883289E-2,2.0409296E-1,8.27338E-2,-1.0408869E-1,7.994026E-4,6.315552E-1,5.2339025E-4,5.103272E-3,1.361283E-1,2.2952369E-1,3.7237188E-1,5.364287E-1,2.0646378E-1,1.4625402E-1,8.423273E-2,-1.05189286E-1,6.545387E-2,1.0228518E-1,6.9169454E-2,2.3591948E-1,1.3070486E-1,-2.373959E-2,5.187121E-1,2.0965981E-1,3.226443E-1,1.3465463E-1,1.615815E-1,5.7891138E-2,2.0048209E-1,-6.7934394E-2,7.922335E-2,1.4708307E-1,4.0657258E-1,6.229488E-3,1.9108358E-1,1.1609283E-1,4.5108533E-1,7.999924E-1,3.63054E-1,2.8681746E-1,-1.4590481E-1,2.0881711E-1,2.1667333E-1,2.8920755E-1,-1.0179594E-2,1.1787022E-2,-2.4757229E-2,2.558264E-2,-8.8869095E-2,6.253255E-2,-1.400775E-1,-2.0831697E-2,1.1131364E-1,4.3338683E-2,-3.131844E-3,-9.479926E-2,9.432487E-3,4.090501E-2,-5.3655207E-3,-1.9754658E-2,1.6361814E-2,-1.3391827E-1,9.2838295E-3,2.827374E-2,-3.0167414E-2,2.1731898E-2,1.22395456E-1,7.3834965E-3,-2.4666253E-3,4.0158194E-2,1.6840558E-2,-4.534866E-3,2.0623995E-2,-1.9582218E-2,6.934057E-2,2.0179031E-3,1.0396724E-1,3.060216E-2,-4.0686708E-2,5.1388856E-2,-7.2277673E-3,-1.278476E-1,7.829877E-2,-3.200848E-2,-1.0675074E-1,8.0792326E-4,8.022147E-2,-8.295243E-3,4.2952184E-2,-6.1036754E-2,1.0014321E-1,-0E0,-4.159331E-2,2.2405585E-2],"split_indices":[14,14,25,31,31,16,5,16,10,13,8,4,9,5,22,14,30,28,0,13,5,17,27,9,5,6,30,10,30,12,0,16,28,31,25,25,0,4,1,13,31,26,1,8,0,28,4,18,17,22,16,30,14,13,10,0,30,1,12,0,0,0,0,0,0,0,0,0,0,0,0,0,0,0,0,0,0,0,0,0,0,0,0,0,0,0,0,0,0,0,0,0,0,0,0,0,0,0,0,0,0,0,0,0,0,0,0,0,0],"split_type":[0,0,0,0,0,0,0,0,0,0,0,0,0,0,0,0,0,0,0,0,0,0,0,0,0,0,0,0,0,0,0,0,0,0,0,0,0,0,0,0,0,0,0,0,0,0,0,0,0,0,0,0,0,0,0,0,0,0,0,0,0,0,0,0,0,0,0,0,0,0,0,0,0,0,0,0,0,0,0,0,0,0,0,0,0,0,0,0,0,0,0,0,0,0,0,0,0,0,0,0,0,0,0,0,0,0,0,0,0],"sum_hessian":[1.4354137E4,1.1395114E4,2.959022E3,2.328962E3,9.066153E3,2.7556938E3,2.0332816E2,2.283261E3,4.570097E1,7.7059736E3,1.3601793E3,2.6821697E3,7.352417E1,1.0373734E2,9.959081E1,2.2631545E3,2.0106382E1,4.246262E1,3.23835E0,4.0917483E3,3.614225E3,1.3345455E3,2.5633816E1,2.1367527E3,5.4541705E2,5.3503838E1,2.0020334E1,4.7816105E1,5.5921238E1,9.3676346E1,5.914466E0,1.7684016E3,4.9475296E2,7.4044914E0,1.270189E1,3.699494E1,5.4676795E0,2.5918948E3,1.4998536E3,3.5978225E3,1.6402752E1,1.227625E3,1.069205E2,2.2421942E1,3.2118735E0,9.0585895E2,1.2308937E3,4.4651956E2,9.88975E1,4.627481E1,7.2290273E0,8.956075E0,1.10642605E1,1.5935431E1,3.1880676E1,5.9636755E0,4.995756E1,2.8078602E1,6.559775E1,1.6157767E3,1.5262485E2,4.6957776E2,2.5175205E1,3.2090683E0,4.195423E0,8.967455E0,3.7344358E0,9.174796E0,2.7820145E1,2.58068E3,1.1214939E1,1.4009464E3,9.8907135E1,3.0855757E3,5.1224677E2,4.475016E0,1.1927736E1,9.6076306E2,2.6686194E2,7.855787E1,2.8362633E1,1.8955276E1,3.4666657E0,8.502962E2,5.5562725E1,1.045837E3,1.850566E2,4.0238257E2,4.4136993E1,6.944257E1,2.9454924E1,3.710309E1,9.171723E0,3.2392924E0,3.9897351E0,5.2398744E0,3.7161999E0,6.439056E0,4.625204E0,9.212474E0,6.722957E0,1.3185432E1,1.8695244E1,6.482528E0,4.3475033E1,2.3597395E1,4.481206E0,2.9384214E1,3.621353E1],"tree_param":{"num_deleted":"0","num_feature":"32","num_nodes":"109","size_leaf_vector":"1"}},{"base_weights":[-1.8709948E-3,-3.7316255E-2,5.4253142E-2,-2.6650451E-2,-2.0053503E-1,6.622158E-2,-1.4493136E-1,-3.52047E-2,1.4270684E-1,-1.1981279E-1,-4.160989E-1,8.344791E-2,-7.36324E-2,-1.8102916E-1,3.8259372E-1,-8.224496E-3,-1.15815E-1,1.1152837E-1,9.850752E-1,-6.48769E-3,-3.441878E-1,-6.0270965E-1,-1.23225056E-1,2.2356443E-2,1.21239655E-1,9.5204405E-2,-2.4812408E-1,5.330326E-1,-2.1195008E-1,8.205326E-1,-8.004592E-2,1.1284312E-3,-2.6232907E-1,-1.0373847E-1,-7.0743483E-1,-4.2018145E-2,2.3163323E-1,5.198992E-1,1.418494E-1,-1.9096768E-1,2.4408641E-1,-2.5888172E-1,-1.2201048E0,1.9873357E-1,-7.3140025E-1,-1.0462629E-1,-7.4135214E-3,1.5694175E-2,1.0347542E0,2.1662153E-1,6.773692E-2,-7.398671E-2,3.1120807E-1,-3.0371898E-1,7.8547394E-1,9.887271E-1,-5.5619117E-2,-4.3880928E-1,-1.2872845E-1,1.2253684E-1,-8.031998E-4,-1.8102784E-3,1.0525408E-2,-3.69175E-2,3.7983112E-2,-9.412856E-3,-5.8008123E-2,-3.8517784E-2,-1.1286366E-1,5.8692712E-3,-6.7713946E-2,4.1700456E-2,-2.6469436E-4,8.657112E-2,6.167702E-3,-3.0497594E-2,3.0115163E-2,-7.2138123E-3,5.1936354E-2,-3.0868266E-2,7.069256E-2,-4.2746477E-2,-1.4675437E-1,7.978997E-2,-3.210524E-2,-5.968463E-2,-1.2541923E-1,-1.2231715E-2,8.31311E-2,1.7568379E-4,4.713394E-2,3.3778336E-2,1.3060363E-1,1.9261945E-2,6.21247E-2,4.854117E-3,4.5599766E-2,3.5810117E-3,-6.67276E-2,-9.31133E-3,5.0518733E-2,-3.7620217E-2,1.9762013E-2,1.0094173E-1,1.69067E-2,1.2979741E-1,4.8903693E-2,-8.369465E-2,-1.869189E-2,-3.3223236E-3,-5.005888E-2],"categories":[],"categories_nodes":[],"categories_segments":[],"categories_sizes":[],"default_left":[0,0,0,0,0,0,0,0,0,0,0,0,0,0,0,0,0,0,0,0,0,0,0,0,0,0,0,0,0,0,0,0,0,0,0,0,0,0,0,0,0,0,0,0,0,0,0,0,0,0,0,0,0,0,0,0,0,0,0,0,0,0,0,0,0,0,0,0,0,0,0,0,0,0,0,0,0,0,0,0,0,0,0,0,0,0,0,0,0,0,0,0,0,0,0,0,0,0,0,0,0,0,0,0,0,0,0,0,0,0,0],"id":12,"left_children":[1,3,5,7,9,11,13,15,17,19,21,23,25,27,29,31,33,35,37,39,41,43,45,47,49,51,53,55,57,59,-1,61,63,65,67,69,71,73,-1,75,77,79,81,83,85,-1,87,89,91,93,95,97,99,101,103,105,-1,107,109,-1,-1,-1,-1,-1,-1,-1,-1,-1,-1,-1,-1,-1,-1,-1,-1,-1,-1,-1,-1,-1,-1,-1,-1,-1,-1,-1,-1,-1,-1,-1,-1,-1,-1,-1,-1,-1,-1,-1,-1,-1,-1,-1,-1,-1,-1,-1,-1,-1,-1,-1,-1],"loss_changes":[2.8632687E1,1.5332078E1,1.3281685E1,1.1995262E1,9.301329E0,1.2669804E1,6.058737E0,1.7139713E1,1.0231732E1,1.00057125E1,7.8604164E0,1.0789585E1,1.7017107E1,6.621559E0,1.1205397E1,1.4074919E1,1.3968964E1,7.128257E0,1.8834181E0,1.2232979E1,9.416461E0,9.380417E0,6.138923E0,1.1959748E1,1.4708099E1,1.0766689E1,1.6508284E1,6.7706122E0,5.2634563E0,5.3012733E0,0E0,1.1428443E1,1.45637E1,8.751978E0,4.73559E0,1.0939899E1,9.446128E0,1.1886582E0,0E0,8.659309E0,9.835697E0,6.0399427E0,1.4115162E0,4.3512897E0,4.4847946E0,0E0,5.145197E0,1.1259205E1,1.5870523E0,9.876221E0,1.3744894E1,1.0837726E1,1.0228597E1,9.91423E0,1.7381544E0,6.08099E-1,0E0,7.3324842E0,7.391351E0,0E0,0E0,0E0,0E0,0E0,0E0,0E0,0E0,0E0,0E0,0E0,0E0,0E0,0E0,0E0,0E0,0E0,0E0,0E0,0E0,0E0,0E0,0E0,0E0,0E0,0E0,0E0,0E0,0E0,0E0,0E0,0E0,0E0,0E0,0E0,0E0,0E0,0E0,0E0,0E0,0E0,0E0,0E0,0E0,0E0,0E0,0E0,0E0,0E0,0E0,0E0,0E0],"parents":[2147483647,0,0,1,1,2,2,3,3,4,4,5,5,6,6,7,7,8,8,9,9,10,10,11,11,12,12,13,13,14,14,15,15,16,16,17,17,18,18,19,19,20,20,21,21,22,22,23,23,24,24,25,25,26,26,27,27,28,28,29,29,31,31,32,32,33,33,34,34,35,35,36,36,37,37,39,39,40,40,41,41,42,42,43,43,44,44,46,46,47,47,48,48,49,49,50,50,51,51,52,52,53,53,54,54,55,55,57,57,58,58],"right_children":[2,4,6,8,10,12,14,16,18,20,22,24,26,28,30,32,34,36,38,40,42,44,46,48,50,52,54,56,58,60,-1,62,64,66,68,70,72,74,-1,76,78,80,82,84,86,-1,88,90,92,94,96,98,100,102,104,106,-1,108,110,-1,-1,-1,-1,-1,-1,-1,-1,-1,-1,-1,-1,-1,-1,-1,-1,-1,-1,-1,-1,-1,-1,-1,-1,-1,-1,-1,-1,-1,-1,-1,-1,-1,-1,-1,-1,-1,-1,-1,-1,-1,-1,-1,-1,-1,-1,-1,-1,-1,-1,-1,-1],"split_conditions":[3.5206047E-1,2.0223087E-1,2.326527E-1,4.9438056E-1,8.538438E-2,1.3315016E-1,3.9834857E-1,9.982942E-2,1.24939475E-2,1.2584198E-2,2.1606678E-1,8.780125E-2,7.641776E-2,2.8093167E-2,7.0040214E-1,3.226443E-1,2.092591E-2,2.1308912E-2,2.7495897E-1,3.4423232E-1,1.11505315E-2,6.672071E-2,8.72184E-2,6.0681235E-3,1.8076412E-3,5.6425923E-1,3.655573E-1,2.3658672E-2,4.218134E-1,1.448929E-1,-8.004592E-2,9.783438E-3,5.3014945E-2,6.880258E-2,1.6141236E-1,1.593832E-1,9.522924E-2,2.135402E-1,1.418494E-1,1.5295068E-2,4.8718683E-2,3.5818E-1,1.458656E-3,1.5449499E-2,7.2084986E-2,-1.0462629E-1,1.4645177E-1,1.02432325E-1,1.8502793E-1,3.0435424E-2,4.9579483E-2,3.229683E-1,2.145276E-1,1.3605326E-1,1.5408647E-1,2.9772958E-1,-5.5619117E-2,2.5348008E-1,2.168532E-2,1.2253684E-1,-8.031998E-4,-1.8102784E-3,1.0525408E-2,-3.69175E-2,3.7983112E-2,-9.412856E-3,-5.8008123E-2,-3.8517784E-2,-1.1286366E-1,5.8692712E-3,-6.7713946E-2,4.1700456E-2,-2.6469436E-4,8.657112E-2,6.167702E-3,-3.0497594E-2,3.0115163E-2,-7.2138123E-3,5.1936354E-2,-3.0868266E-2,7.069256E-2,-4.2746477E-2,-1.4675437E-1,7.978997E-2,-3.210524E-2,-5.968463E-2,-1.2541923E-1,-1.2231715E-2,8.31311E-2,1.7568379E-4,4.713394E-2,3.3778336E-2,1.3060363E-1,1.9261945E-2,6.21247E-2,4.854117E-3,4.5599766E-2,3.5810117E-3,-6.67276E-2,-9.31133E-3,5.0518733E-2,-3.7620217E-2,1.9762013E-2,1.0094173E-1,1.69067E-2,1.2979741E-1,4.8903693E-2,-8.369465E-2,-1.869189E-2,-3.3223236E-3,-5.005888E-2],"split_indices":[14,3,20,23,23,11,5,19,8,11,14,18,30,13,30,13,16,13,9,30,16,30,30,8,19,14,1,17,14,25,0,2,1,11,9,22,13,9,0,9,6,11,22,14,18,0,16,11,13,28,20,11,11,19,13,19,0,30,22,0,0,0,0,0,0,0,0,0,0,0,0,0,0,0,0,0,0,0,0,0,0,0,0,0,0,0,0,0,0,0,0,0,0,0,0,0,0,0,0,0,0,0,0,0,0,0,0,0,0,0,0],"split_type":[0,0,0,0,0,0,0,0,0,0,0,0,0,0,0,0,0,0,0,0,0,0,0,0,0,0,0,0,0,0,0,0,0,0,0,0,0,0,0,0,0,0,0,0,0,0,0,0,0,0,0,0,0,0,0,0,0,0,0,0,0,0,0,0,0,0,0,0,0,0,0,0,0,0,0,0,0,0,0,0,0,0,0,0,0,0,0,0,0,0,0,0,0,0,0,0,0,0,0,0,0,0,0,0,0,0,0,0,0,0,0],"sum_hessian":[1.4391932E4,8.822309E3,5.569622E3,8.28283E3,5.3947943E2,5.2550317E3,3.145905E2,7.885895E3,3.9693457E2,3.9396936E2,1.4551009E2,4.6797305E3,5.7530133E2,2.9523444E2,1.9356083E1,5.910124E3,1.9757712E3,3.839737E2,1.2960857E1,2.6274124E2,1.3122812E2,8.802422E1,5.7485863E1,1.7901453E3,2.889585E3,2.9232816E2,2.8297318E2,1.1445645E1,2.837888E2,1.4412035E1,4.9440484E0,5.700891E3,2.0923291E2,1.9375648E3,3.820647E1,1.6844498E2,2.1552873E2,7.4235888E0,5.537269E0,1.5169553E2,1.11045715E2,1.2086658E2,1.0361548E1,1.199596E1,7.602827E1,5.4166417E0,5.206922E1,1.779549E3,1.059637E1,1.0366254E3,1.8529596E3,1.6403642E2,1.2829175E2,2.6929147E2,1.3681682E1,8.199376E0,3.2462692E0,7.469594E1,2.0909286E2,9.440972E0,4.971062E0,4.812014E3,8.8887665E2,1.7988374E2,2.9349157E1,1.9006283E3,3.6936443E1,2.2864769E1,1.5341702E1,1.4603795E2,2.2407024E1,1.2012679E2,9.540195E1,3.5995533E0,3.8240354E0,1.2363641E2,2.8059107E1,5.1853584E1,5.9192127E1,1.156853E2,5.1812735E0,3.210097E0,7.1514506E0,5.4132957E0,6.5826645E0,6.232122E1,1.3707045E1,4.6651455E1,5.417767E0,1.7279185E3,5.1630474E1,3.701172E0,6.8951974E0,9.8020355E2,5.6421814E1,1.7669819E3,8.597767E1,1.390705E2,2.496593E1,4.159582E1,8.669592E1,2.3566791E2,3.362358E1,9.449004E0,4.232678E0,3.9544032E0,4.244973E0,2.7891327E1,4.680461E1,1.6744586E2,4.1647003E1],"tree_param":{"num_deleted":"0","num_feature":"32","num_nodes":"111","size_leaf_vector":"1"}},{"base_weights":[9.6977496E-4,1.0870858E-2,-1.6832356E-1,2.8281547E-3,1.6926152E-1,-2.2805567E-1,1.9831013E-2,-2.112045E-2,6.310399E-2,1.566921E-1,1.1899064E-1,-3.0488896E-1,-4.2393267E-2,8.342823E-2,-8.7980163E-1,-1.2388353E-3,-8.7482415E-2,5.1740438E-2,4.0190393E-1,1.7281109E-1,-5.3590053E-1,-2.644114E-1,-6.9322294E-1,-1.02900594E-1,5.5646914E-1,-1.3891988E-3,4.90175E-1,-1.1184944E-1,-3.0533964E-2,2.5014387E-2,-6.942591E-2,-7.659774E-2,-5.72918E-1,5.942486E-2,-3.7097242E-1,5.370681E-1,-3.637475E-1,1.5083356E-1,6.388949E-1,-1.7532949E-1,-1.1948549E-1,-3.0950058E-1,6.897451E-2,-9.454657E-1,6.060227E-2,2.3292609E-2,-4.572257E-1,8.5708153E-1,-2.2964709E-2,6.756784E-2,-6.471035E-1,1.1833297E0,9.602572E-2,1.8311471E-3,3.4279943E-2,-8.771979E-3,1.188607E-2,-1.4868796E-2,7.7758543E-4,-1.078632E-1,-3.0688882E-2,3.8987927E-3,1.7505584E-2,-4.528533E-2,8.665875E-2,6.570748E-2,-4.0017045E-3,-6.886229E-2,2.5730718E-2,1.3159516E-2,6.321215E-2,8.739269E-2,-2.6526798E-2,3.6994107E-2,-8.6317874E-2,-3.3536877E-2,3.0974532E-2,2.1408757E-2,-7.8617215E-2,-1.22526385E-1,2.6531989E-2,7.475583E-2,-7.788754E-2,1.0332931E-2,-7.619216E-2,-6.2120885E-2,3.3612195E-2,-2.5407705E-2,1.435244E-1,-2.9179964E-2,2.0008309E-2,5.3167786E-2,-1.0700431E-1,6.1071116E-2,1.7554635E-1,1.1309196E-1,-1.6659364E-2],"categories":[],"categories_nodes":[],"categories_segments":[],"categories_sizes":[],"default_left":[0,0,0,0,0,0,0,0,0,0,0,0,0,0,0,0,0,0,0,0,0,0,0,0,0,0,0,0,0,0,0,0,0,0,0,0,0,0,0,0,0,0,0,0,0,0,0,0,0,0,0,0,0,0,0,0,0,0,0,0,0,0,0,0,0,0,0,0,0,0,0,0,0,0,0,0,0,0,0,0,0,0,0,0,0,0,0,0,0,0,0,0,0,0,0,0,0],"id":13,"left_children":[1,3,5,7,9,11,13,15,17,19,-1,21,23,25,27,29,31,33,35,37,39,41,43,45,47,49,51,-1,-1,53,55,57,59,61,63,65,67,69,71,73,-1,75,77,79,81,83,85,87,-1,89,91,93,95,-1,-1,-1,-1,-1,-1,-1,-1,-1,-1,-1,-1,-1,-1,-1,-1,-1,-1,-1,-1,-1,-1,-1,-1,-1,-1,-1,-1,-1,-1,-1,-1,-1,-1,-1,-1,-1,-1,-1,-1,-1,-1,-1,-1],"loss_changes":[2.4026058E1,1.7244919E1,8.925949E0,1.862391E1,8.071871E0,8.534201E0,1.0941615E1,1.2168957E1,1.405883E1,7.2850695E0,0E0,6.400921E0,6.4485207E0,6.250178E0,1.2460823E0,1.2724008E1,1.1127768E1,1.1526363E1,1.2489435E1,6.3157177E0,3.177054E0,5.858345E0,7.6118774E0,7.3122697E0,4.112688E0,6.7590113E0,8.28748E0,0E0,0E0,1.088315E1,6.814533E0,1.2674953E1,5.7570105E0,8.216582E0,6.766451E0,7.106472E0,3.9096062E0,5.4576616E0,6.2473536E0,4.44E0,0E0,5.570114E0,5.896668E0,1.0442045E1,6.74094E0,7.5820847E0,5.8167067E0,8.254881E0,0E0,6.5187654E0,7.9319077E0,2.3397455E0,6.0145473E0,0E0,0E0,0E0,0E0,0E0,0E0,0E0,0E0,0E0,0E0,0E0,0E0,0E0,0E0,0E0,0E0,0E0,0E0,0E0,0E0,0E0,0E0,0E0,0E0,0E0,0E0,0E0,0E0,0E0,0E0,0E0,0E0,0E0,0E0,0E0,0E0,0E0,0E0,0E0,0E0,0E0,0E0,0E0,0E0],"parents":[2147483647,0,0,1,1,2,2,3,3,4,4,5,5,6,6,7,7,8,8,9,9,11,11,12,12,13,13,14,14,15,15,16,16,17,17,18,18,19,19,20,20,21,21,22,22,23,23,24,24,25,25,26,26,29,29,30,30,31,31,32,32,33,33,34,34,35,35,36,36,37,37,38,38,39,39,41,41,42,42,43,43,44,44,45,45,46,46,47,47,49,49,50,50,51,51,52,52],"right_children":[2,4,6,8,10,12,14,16,18,20,-1,22,24,26,28,30,32,34,36,38,40,42,44,46,48,50,52,-1,-1,54,56,58,60,62,64,66,68,70,72,74,-1,76,78,80,82,84,86,88,-1,90,92,94,96,-1,-1,-1,-1,-1,-1,-1,-1,-1,-1,-1,-1,-1,-1,-1,-1,-1,-1,-1,-1,-1,-1,-1,-1,-1,-1,-1,-1,-1,-1,-1,-1,-1,-1,-1,-1,-1,-1,-1,-1,-1,-1,-1,-1],"split_conditions":[2.0223087E-1,8.6237215E-2,1.0926503E-1,4.2298615E-1,1.8727161E-1,4.1180664E-1,1.7308812E-1,5.4178756E-2,2.5901762E-1,2.5219777E-1,1.1899064E-1,5.823399E-1,1.4585289E-2,4.4760615E-2,9.701366E-3,5.284679E-2,4.403519E-1,2.0475419E-1,6.615226E-2,2.4223407E-1,1.3323973E-1,3.6150628E-1,1.1547963E-1,5.258295E-1,1.5840821E-1,7.295818E-2,5.099995E-2,-1.1184944E-1,-3.0533964E-2,2.4760807E-1,2.8011275E-3,1.5710196E-1,1.7129993E-1,7.3387897E-1,5.6759445E-3,9.078209E-2,4.9069505E-2,3.510461E-1,3.542583E-1,1.2825537E-2,-1.1948549E-1,4.0063715E-1,3.7388974E-1,2.4287052E-1,3.2085744E-1,2.7496943E-1,4.05024E-1,1.7480843E-2,-2.2964709E-2,1.37919E-1,1.2254864E-3,1.594566E-1,6.1623957E-2,1.8311471E-3,3.4279943E-2,-8.771979E-3,1.188607E-2,-1.4868796E-2,7.7758543E-4,-1.078632E-1,-3.0688882E-2,3.8987927E-3,1.7505584E-2,-4.528533E-2,8.665875E-2,6.570748E-2,-4.0017045E-3,-6.886229E-2,2.5730718E-2,1.3159516E-2,6.321215E-2,8.739269E-2,-2.6526798E-2,3.6994107E-2,-8.6317874E-2,-3.3536877E-2,3.0974532E-2,2.1408757E-2,-7.8617215E-2,-1.22526385E-1,2.6531989E-2,7.475583E-2,-7.788754E-2,1.0332931E-2,-7.619216E-2,-6.2120885E-2,3.3612195E-2,-2.5407705E-2,1.435244E-1,-2.9179964E-2,2.0008309E-2,5.3167786E-2,-1.0700431E-1,6.1071116E-2,1.7554635E-1,1.1309196E-1,-1.6659364E-2],"split_indices":[3,2,9,30,24,30,20,20,4,20,0,13,1,20,4,5,25,4,11,19,23,3,4,25,23,6,15,0,0,15,20,31,9,30,29,1,1,4,19,6,0,26,30,29,10,26,5,23,0,30,5,10,20,0,0,0,0,0,0,0,0,0,0,0,0,0,0,0,0,0,0,0,0,0,0,0,0,0,0,0,0,0,0,0,0,0,0,0,0,0,0,0,0,0,0,0,0],"split_type":[0,0,0,0,0,0,0,0,0,0,0,0,0,0,0,0,0,0,0,0,0,0,0,0,0,0,0,0,0,0,0,0,0,0,0,0,0,0,0,0,0,0,0,0,0,0,0,0,0,0,0,0,0,0,0,0,0,0,0,0,0,0,0,0,0,0,0,0,0,0,0,0,0,0,0,0,0,0,0,0,0,0,0,0,0,0,0,0,0,0,0,0,0,0,0,0,0],"sum_hessian":[1.4341057E4,1.3550108E4,7.9094855E2,1.2896884E4,6.5322406E2,6.005998E2,1.9034875E2,9.229026E3,3.6678574E3,6.465136E2,6.7104216E0,4.2396722E2,1.7663258E2,1.7873216E2,1.161659E1,7.103415E3,2.1256116E3,3.5502285E3,1.1762886E2,6.3268384E2,1.3829828E1,3.8570236E2,3.826486E1,1.6132765E2,1.5304924E1,1.4851384E2,3.0218319E1,7.4146485E0,4.2019405E0,5.128153E3,1.9752623E3,2.080329E3,4.528235E1,3.4879182E3,6.231027E1,1.0034383E2,1.7285034E1,6.056628E2,2.7021E1,9.855085E0,3.9747431E0,3.400795E2,4.5622845E1,2.8579954E1,9.684906E0,1.1944076E2,4.1886894E1,1.1097972E1,4.2069526E0,1.3485312E2,1.3660724E1,1.01364E1,2.0081919E1,5.023565E3,1.0458781E2,1.8013125E3,1.7394986E2,1.1220521E3,9.5827704E2,1.442685E1,3.0855495E1,2.9659163E3,5.220021E2,5.9113983E1,3.1962879E0,8.309801E1,1.724582E1,1.13828535E1,5.902181E0,5.838076E2,2.1855198E1,2.1560509E1,5.46049E0,5.674E0,4.181086E0,3.2703784E2,1.3041664E1,3.9744957E1,5.877885E0,2.3272572E1,5.3073816E0,5.4520426E0,4.232863E0,1.09296005E2,1.0144754E1,3.4996273E1,6.890622E0,3.9308784E0,7.1670933E0,3.5802864E1,9.905025E1,3.4768374E0,1.0183887E1,6.186685E0,3.9497151E0,3.4724889E0,1.660943E1],"tree_param":{"num_deleted":"0","num_feature":"32","num_nodes":"97","size_leaf_vector":"1"}},{"base_weights":[-4.8766094E-3,4.1343146E-3,-1.7272192E-1,2.140628E-2,-7.002383E-2,-1.8135488E-1,1.04517795E-1,2.0282034E-2,9.9707115E-1,-8.875457E-2,1.9671552E-1,-2.861616E-1,-8.276097E-2,6.16468E-3,8.600719E-2,1.2041326E-1,2.4190677E-2,-1.12783566E-1,9.8928705E-2,1.23683736E-1,9.823053E-1,-3.77809E-1,-6.775699E-2,-5.6421258E-2,-8.683955E-1,-1.2438726E-2,8.914001E-2,1.3838343E-1,-4.092231E-2,-9.6838966E-2,-5.530938E-1,1.4949408E-1,-6.486087E-1,2.1364658E-1,-4.7194582E-1,1.2327148E-1,5.069098E-2,-2.4072121E-1,-7.054046E-1,-6.107574E-1,1.448133E-1,-3.900865E-2,-1.172927E-1,-1.319046E-1,-3.3221655E-2,-7.8931864E-4,-3.737259E-2,4.0013096E-3,2.5278687E-2,1.2565836E-2,7.79268E-2,-6.0017533E-3,9.121868E-2,-8.854187E-3,-9.9645704E-2,-7.110592E-2,-5.243299E-4,2.3111878E-2,-3.7409756E-2,2.3793153E-4,-9.6724406E-2,-1.22719996E-1,2.584885E-2,6.0510654E-2,-1.1463588E-1,-3.633083E-2,1.9770146E-3,-7.705521E-2,2.7091581E-2,6.9662E-2,-9.4414525E-2,-3.771478E-3,5.7807077E-2,-5.939014E-4,-5.7035662E-2],"categories":[],"categories_nodes":[],"categories_segments":[],"categories_sizes":[],"default_left":[0,0,0,0,0,0,0,0,0,0,0,0,0,0,0,0,0,0,0,0,0,0,0,0,0,0,0,0,0,0,0,0,0,0,0,0,0,0,0,0,0,0,0,0,0,0,0,0,0,0,0,0,0,0,0,0,0,0,0,0,0,0,0,0,0,0,0,0,0,0,0,0,0,0,0],"id":14,"left_children":[1,3,5,7,9,11,-1,13,15,17,19,21,23,25,27,-1,-1,29,31,33,35,37,39,41,43,45,47,49,51,53,55,57,59,61,63,-1,-1,65,67,69,71,73,-1,-1,-1,-1,-1,-1,-1,-1,-1,-1,-1,-1,-1,-1,-1,-1,-1,-1,-1,-1,-1,-1,-1,-1,-1,-1,-1,-1,-1,-1,-1,-1,-1],"loss_changes":[2.1819077E1,1.7519714E1,7.8313293E0,1.2051508E1,1.2914696E1,7.490898E0,0E0,1.027707E1,1.5422001E0,1.0904161E1,9.491331E0,7.002287E0,7.6900244E0,1.4099908E1,1.3038598E1,0E0,0E0,1.4918886E1,1.04104595E1,8.451469E0,8.8618946E-1,1.0888958E1,1.2368152E1,6.9751983E0,2.3165321E0,1.2204549E1,1.341018E1,1.1127115E1,1.0387673E1,1.5242931E1,6.3651676E0,1.1087258E1,3.7147646E0,9.048977E0,1.5768037E1,0E0,0E0,5.687869E0,4.872242E0,1.3819767E1,6.152603E0,6.314823E0,0E0,0E0,0E0,0E0,0E0,0E0,0E0,0E0,0E0,0E0,0E0,0E0,0E0,0E0,0E0,0E0,0E0,0E0,0E0,0E0,0E0,0E0,0E0,0E0,0E0,0E0,0E0,0E0,0E0,0E0,0E0,0E0,0E0],"parents":[2147483647,0,0,1,1,2,2,3,3,4,4,5,5,7,7,8,8,9,9,10,10,11,11,12,12,13,13,14,14,17,17,18,18,19,19,20,20,21,21,22,22,23,23,24,24,25,25,26,26,27,27,28,28,29,29,30,30,31,31,32,32,33,33,34,34,37,37,38,38,39,39,40,40,41,41],"right_children":[2,4,6,8,10,12,-1,14,16,18,20,22,24,26,28,-1,-1,30,32,34,36,38,40,42,44,46,48,50,52,54,56,58,60,62,64,-1,-1,66,68,70,72,74,-1,-1,-1,-1,-1,-1,-1,-1,-1,-1,-1,-1,-1,-1,-1,-1,-1,-1,-1,-1,-1,-1,-1,-1,-1,-1,-1,-1,-1,-1,-1,-1,-1],"split_conditions":[2.1028617E-1,6.933993E-2,5.399968E-1,3.613997E-1,5.108234E-1,1.6324806E-1,1.04517795E-1,1.8045938E-2,3.1329694E-1,7.6908683E-3,8.051404E-1,1.3989177E-1,2.532591E-1,4.8468284E-2,3.7011947E-2,1.2041326E-1,2.4190677E-2,5.1326707E-2,3.3955237E-1,4.361326E-1,7.6988734E-2,1.4925806E-1,2.1716121E-1,2.0927313E-1,2.3837957E-1,9.195505E-3,9.2845596E-4,1.6418281E-1,2.4846077E-1,1.7337362E-1,1.2379572E-1,3.6718336E-1,1.7654037E-2,1.1672469E-2,2.1886106E-1,1.2327148E-1,5.069098E-2,2.708735E-1,3.3766413E-1,1.6736448E-1,1.0769658E-1,4.108996E-1,-1.172927E-1,-1.319046E-1,-3.3221655E-2,-7.8931864E-4,-3.737259E-2,4.0013096E-3,2.5278687E-2,1.2565836E-2,7.79268E-2,-6.0017533E-3,9.121868E-2,-8.854187E-3,-9.9645704E-2,-7.110592E-2,-5.243299E-4,2.3111878E-2,-3.7409756E-2,2.3793153E-4,-9.6724406E-2,-1.22719996E-1,2.584885E-2,6.0510654E-2,-1.1463588E-1,-3.633083E-2,1.9770146E-3,-7.705521E-2,2.7091581E-2,6.9662E-2,-9.4414525E-2,-3.771478E-3,5.7807077E-2,-5.939014E-4,-5.7035662E-2],"split_indices":[3,20,31,2,23,5,0,0,6,2,30,10,1,26,3,0,0,0,20,15,7,13,13,16,9,0,10,1,7,16,3,26,31,9,20,0,0,3,31,10,30,9,0,0,0,0,0,